{"learner":{"attributes":{"best_iteration":"199","best_ntree_limit":"200"},"feature_names":["die_matrix","lifetime_2nd_strike_s","oee_cycle_time_s"],"feature_types":["int","float","float"],"gradient_booster":{"model":{"gbtree_model_param":{"num_parallel_tree":"1","num_trees":"200","size_leaf_vector":"0"},"tree_info":[0,0,0,0,0,0,0,0,0,0,0,0,0,0,0,0,0,0,0,0,0,0,0,0,0,0,0,0,0,0,0,0,0,0,0,0,0,0,0,0,0,0,0,0,0,0,0,0,0,0,0,0,0,0,0,0,0,0,0,0,0,0,0,0,0,0,0,0,0,0,0,0,0,0,0,0,0,0,0,0,0,0,0,0,0,0,0,0,0,0,0,0,0,0,0,0,0,0,0,0,0,0,0,0,0,0,0,0,0,0,0,0,0,0,0,0,0,0,0,0,0,0,0,0,0,0,0,0,0,0,0,0,0,0,0,0,0,0,0,0,0,0,0,0,0,0,0,0,0,0,0,0,0,0,0,0,0,0,0,0,0,0,0,0,0,0,0,0,0,0,0,0,0,0,0,0,0,0,0,0,0,0,0,0,0,0,0,0,0,0,0,0,0,0,0,0,0,0,0,0],"trees":[{"base_weights":[5.815055E1,5.6790848E1,6.1324005E1,5.596305E1,5.7874126E1,6.047314E1,6.4603226E1,5.4794455E0,5.613845E1,5.6283526E0,5.802772E1,5.9779534E0,6.1537375E0,6.3652415E0,6.6956253E0,5.5669007E0,5.6479974E0,5.759441E0,5.850144E0],"categories":[],"categories_nodes":[],"categories_segments":[],"categories_sizes":[],"default_left":[0,0,0,0,0,0,0,0,0,0,0,0,0,0,0,0,0,0,0],"id":0,"left_children":[1,3,5,7,9,11,13,-1,15,-1,17,-1,-1,-1,-1,-1,-1,-1,-1],"loss_changes":[4.58304E5,6.3968E4,8.5624E4,5.624E3,4.648E3,1.5136E4,1.0494E4,0E0,2.784E3,0E0,2.696E3,0E0,0E0,0E0,0E0,0E0,0E0,0E0,0E0],"parents":[2147483647,0,0,1,1,2,2,3,3,4,4,5,5,6,6,8,8,10,10],"right_children":[2,4,6,8,10,12,14,-1,16,-1,18,-1,-1,-1,-1,-1,-1,-1,-1],"split_conditions":[1.94E1,1.76E1,2.29E1,5.052E3,5.052E3,2.11E1,2.47E1,5.4794455E0,1.67E1,5.6283526E0,1.84E1,5.9779534E0,6.1537375E0,6.3652415E0,6.6956253E0,5.5669007E0,5.6479974E0,5.759441E0,5.850144E0],"split_indices":[1,1,1,0,0,1,1,0,1,0,1,0,0,0,0,0,0,0,0],"split_type":[0,0,0,0,0,0,0,0,0,0,0,0,0,0,0,0,0,0,0],"sum_hessian":[1.0702E5,7.4933E4,3.2087E4,4.2505E4,3.2428E4,2.5492E4,6.595E3,5.588E3,3.6917E4,2.888E3,2.954E4,1.5468E4,1.0024E4,4.717E3,1.878E3,1.5616E4,2.1301E4,1.5492E4,1.4048E4],"tree_param":{"num_deleted":"0","num_feature":"3","num_nodes":"19","size_leaf_vector":"0"}},{"base_weights":[5.2335163E1,5.117093E1,5.5358864E1,5.0409664E1,5.222461E1,5.441553E1,5.778379E1,4.9677806E0,5.104995E1,5.090329E0,5.2812397E1,5.307478E0,5.485201E1,5.7016716E1,6.032154E0,5.0580225E0,5.157065E0,5.2463017E0,5.3256364E0,5.4214807E0,5.551582E0,5.5522876E0,5.74021E0],"categories":[],"categories_nodes":[],"categories_segments":[],"categories_sizes":[],"default_left":[0,0,0,0,0,0,0,0,0,0,0,0,0,0,0,0,0,0,0,0,0,0,0],"id":1,"left_children":[1,3,5,7,9,11,13,-1,15,-1,17,-1,19,21,-1,-1,-1,-1,-1,-1,-1,-1,-1],"loss_changes":[3.7584E5,5.9664E4,6.5224E4,1.8608E4,2.2592E4,9.696E3,1.2826E4,0E0,3.272E3,0E0,6.96E2,0E0,3.848E3,5.18E2,0E0,0E0,0E0,0E0,0E0,0E0,0E0,0E0,0E0],"parents":[2147483647,0,0,1,1,2,2,3,3,4,4,5,5,6,6,8,8,10,10,12,12,13,13],"right_children":[2,4,6,8,10,12,14,-1,16,-1,18,-1,20,22,-1,-1,-1,-1,-1,-1,-1,-1,-1],"split_conditions":[1.96E1,1.77E1,2.25E1,1.37896E1,1.3771E1,1.37296E1,2.47E1,4.9677806E0,1.69E1,5.090329E0,1.86E1,5.307478E0,2.08E1,1.37914E1,6.032154E0,5.0580225E0,5.157065E0,5.2463017E0,5.3256364E0,5.4214807E0,5.551582E0,5.5522876E0,5.74021E0],"split_indices":[1,1,1,2,2,2,1,0,1,0,1,0,1,2,0,0,0,0,0,0,0,0,0],"split_type":[0,0,0,0,0,0,0,0,0,0,0,0,0,0,0,0,0,0,0,0,0,0,0],"sum_hessian":[1.07562E5,7.7673E4,2.9889E4,4.5122E4,3.2551E4,2.1535E4,8.354E3,2.1092E4,2.403E4,1.0049E4,2.2502E4,5.319E3,1.6216E4,6.433E3,1.921E3,1.2685E4,1.1345E4,1.2659E4,9.843E3,8.316E3,7.9E3,1.349E3,5.084E3],"tree_param":{"num_deleted":"0","num_feature":"3","num_nodes":"23","size_leaf_vector":"0"}},{"base_weights":[4.7099144E1,4.5699825E1,4.790725E1,4.5376124E0,4.6252284E0,4.4849257E0,4.800979E1,4.7695354E1,4.858345E1,4.7934525E1,4.7325873E0,4.841739E0,4.920255E0,4.7050877E0,4.8090286E0],"categories":[],"categories_nodes":[],"categories_segments":[],"categories_sizes":[],"default_left":[0,0,0,0,0,0,0,0,0,0,0,0,0,0,0],"id":2,"left_children":[1,3,5,-1,-1,-1,7,9,11,13,-1,-1,-1,-1,-1],"loss_changes":[1.19168E5,4.928E3,1.9184E4,0E0,0E0,0E0,9.552E3,1.488E3,4E0,1.284E3,0E0,0E0,0E0,0E0,0E0],"parents":[2147483647,0,0,1,1,2,2,6,6,7,7,8,8,9,9],"right_children":[2,4,6,-1,-1,-1,8,10,12,14,-1,-1,-1,-1,-1],"split_conditions":[1.38E1,1.35496E1,5.052E3,4.5376124E0,4.6252284E0,4.4849257E0,1.41286E1,1.38082E1,1.47272E1,5.09E3,4.7325873E0,4.841739E0,4.920255E0,4.7050877E0,4.8090286E0],"split_indices":[2,2,0,0,0,0,2,2,2,0,0,0,0,0,0],"split_type":[0,0,0,0,0,0,0,0,0,0,0,0,0,0,0],"sum_hessian":[1.0733E5,3.9313E4,6.8017E4,2.4841E4,1.4472E4,2.221E3,6.5796E4,4.2555E4,2.3241E4,2.5755E4,1.68E4,1.8388E4,4.853E3,3.905E3,2.185E4],"tree_param":{"num_deleted":"0","num_feature":"3","num_nodes":"15","size_leaf_vector":"0"}},{"base_weights":[4.2390602E1,4.112432E1,4.311832E1,4.0862284E0,4.1696057E0,4.038203E0,4.3209095E1,4.2932556E1,4.3745275E0,4.276643E1,4.3374095E0,4.2987545E1,4.247581E0,4.232977E0,4.316652E0],"categories":[],"categories_nodes":[],"categories_segments":[],"categories_sizes":[],"default_left":[0,0,0,0,0,0,0,0,0,0,0,0,0,0,0],"id":3,"left_children":[1,3,5,-1,-1,-1,7,9,-1,11,-1,13,-1,-1,-1],"loss_changes":[9.6976E4,4.164E3,1.5152E4,0E0,0E0,0E0,7.888E3,1.328E3,0E0,2.12E2,0E0,2.8E2,0E0,0E0,0E0],"parents":[2147483647,0,0,1,1,2,2,6,6,7,7,9,9,11,11],"right_children":[2,4,6,-1,-1,-1,8,10,-1,12,-1,14,-1,-1,-1],"split_conditions":[1.37914E1,1.35894E1,5.052E3,4.0862284E0,4.1696057E0,4.038203E0,1.41478E1,5.091E3,4.3745275E0,1.38082E1,4.3374095E0,5.09E3,4.247581E0,4.232977E0,4.316652E0],"split_indices":[2,2,0,0,0,0,2,0,0,2,0,0,0,0,0],"split_type":[0,0,0,0,0,0,0,0,0,0,0,0,0,0,0],"sum_hessian":[1.0717E5,3.9133E4,6.8037E4,2.6884E4,1.2249E4,2.199E3,6.5838E4,4.3489E4,2.2349E4,3.1671E4,1.1818E4,1.7903E4,1.3768E4,3.88E3,1.4023E4],"tree_param":{"num_deleted":"0","num_feature":"3","num_nodes":"15","size_leaf_vector":"0"}},{"base_weights":[3.816299E1,3.6931664E1,3.8775944E1,3.672936E0,3.7282963E0,3.631624E0,3.8853153E1,3.858503E1,3.9366627E1,3.8442008E0,3.8984356E0,3.922734E0,3.996725E1,4.0144696E0,3.76577E0],"categories":[],"categories_nodes":[],"categories_segments":[],"categories_sizes":[],"default_left":[0,0,0,0,0,0,0,0,0,0,0,0,0,0,0],"id":4,"left_children":[1,3,5,-1,-1,-1,7,9,11,-1,-1,-1,13,-1,-1],"loss_changes":[7.9664E4,1.168E3,1.22E4,0E0,0E0,0E0,8.056E3,1.12E3,4.24E2,0E0,0E0,0E0,3.025E2,0E0,0E0],"parents":[2147483647,0,0,1,1,2,2,6,6,7,7,8,8,12,12],"right_children":[2,4,6,-1,-1,-1,8,10,12,-1,-1,-1,14,-1,-1],"split_conditions":[1.37316E1,1.35272E1,5.052E3,3.672936E0,3.7282963E0,3.631624E0,1.41104E1,5.091E3,1.47706E1,3.8442008E0,3.8984356E0,3.922734E0,1.5933E1,4.0144696E0,3.76577E0],"split_indices":[2,2,0,0,0,0,2,0,2,0,0,0,2,0,0],"split_type":[0,0,0,0,0,0,0,0,0,0,0,0,0,0,0],"sum_hessian":[1.07445E5,3.573E4,7.1715E4,2.274E4,1.299E4,2.197E3,6.9518E4,4.572E4,2.3798E4,3.3735E4,1.1985E4,1.9372E4,4.426E3,4.095E3,3.31E2],"tree_param":{"num_deleted":"0","num_feature":"3","num_nodes":"15","size_leaf_vector":"0"}},{"base_weights":[3.4336002E1,3.3375298E1,3.710596E1,3.276942E1,3.4363415E1,3.6384724E1,3.9401398E1,3.2452316E1,3.3264294E1,3.357704E1,3.4656796E1,3.5935757E1,3.735796E0,3.890776E1,4.2375026E0,3.2116659E0,3.2701195E1,3.2723007E0,3.3684342E0,3.325671E0,3.409393E0,3.4334812E0,3.5083833E0,3.521962E0,3.6205926E0,3.8274229E0,3.9558156E0,3.0107353E0,3.2751076E1,3.2446034E0,3.2964885E0],"categories":[],"categories_nodes":[],"categories_segments":[],"categories_sizes":[],"default_left":[0,0,0,0,0,0,0,0,0,0,0,0,0,0,0,0,0,0,0,0,0,0,0,0,0,0,0,0,0,0,0],"id":5,"left_children":[1,3,5,7,9,11,13,15,17,19,21,23,-1,25,-1,-1,27,-1,-1,-1,-1,-1,-1,-1,-1,-1,-1,-1,29,-1,-1],"loss_changes":[2.84208E5,4.656E4,4.4284E4,6.676E3,5.816E3,7.846E3,8.025E3,1.47E3,3.274E3,2.33E2,1.822E3,1.514E3,0E0,8.2E2,0E0,0E0,1.248E3,0E0,0E0,0E0,0E0,0E0,0E0,0E0,0E0,0E0,0E0,0E0,3.4E1,0E0,0E0],"parents":[2147483647,0,0,1,1,2,2,3,3,4,4,5,5,6,6,7,7,8,8,9,9,10,10,11,11,13,13,16,16,28,28],"right_children":[2,4,6,8,10,12,14,16,18,20,22,24,-1,26,-1,-1,28,-1,-1,-1,-1,-1,-1,-1,-1,-1,-1,-1,30,-1,-1],"split_conditions":[1.98E1,1.79E1,2.29E1,1.71E1,1.37126E1,2.16E1,2.56E1,1.37126E1,1.38E1,1.88E1,1.88E1,1.37896E1,3.735796E0,2.38E1,4.2375026E0,3.2116659E0,1.28E1,3.2723007E0,3.3684342E0,3.325671E0,3.409393E0,3.4334812E0,3.5083833E0,3.521962E0,3.6205926E0,3.8274229E0,3.9558156E0,3.0107353E0,1.65E1,3.2446034E0,3.2964885E0],"split_indices":[1,1,1,1,2,1,1,2,2,1,1,2,0,1,0,0,1,0,0,0,0,0,0,0,0,0,0,0,1,0,0],"split_type":[0,0,0,0,0,0,0,0,0,0,0,0,0,0,0,0,0,0,0,0,0,0,0,0,0,0,0,0,0,0,0],"sum_hessian":[1.07266E5,7.9653E4,2.7613E4,4.9398E4,3.0255E4,2.1024E4,6.589E3,3.0147E4,1.9251E4,8.252E3,2.2003E4,1.4413E4,6.611E3,5.663E3,9.26E2,1.2891E4,1.7256E4,8.446E3,1.0805E4,5.135E3,3.117E3,1.2591E4,9.412E3,3.984E3,1.0429E4,2.899E3,2.764E3,3.37E2,1.6919E4,7.035E3,9.884E3],"tree_param":{"num_deleted":"0","num_feature":"3","num_nodes":"31","size_leaf_vector":"0"}},{"base_weights":[3.0910751E1,3.0083263E1,3.3532658E1,2.9532522E1,3.1032764E1,3.293144E1,3.57679E1,2.92144E1,2.9975752E1,3.0707965E0,3.1460438E0,3.2447374E0,3.3705761E0,3.5261993E1,3.8169353E0,2.670995E0,2.9242447E1,2.934635E0,3.0057626E0,3.478455E0,3.595021E0,2.8780296E0,2.9369526E1,2.8876083E0,2.9463952E0],"categories":[],"categories_nodes":[],"categories_segments":[],"categories_sizes":[],"default_left":[0,0,0,0,0,0,0,0,0,0,0,0,0,0,0,0,0,0,0,0,0,0,0,0,0],"id":6,"left_children":[1,3,5,7,9,11,13,15,17,-1,-1,-1,-1,19,-1,-1,21,-1,-1,-1,-1,-1,23,-1,-1],"loss_changes":[2.31816E5,4.1736E4,3.3408E4,6.408E3,3.192E3,6.512E3,5.2665E3,1.334E3,2.26E2,0E0,0E0,0E0,0E0,2.315E2,0E0,0E0,9.02E2,0E0,0E0,0E0,0E0,0E0,2.32E2,0E0,0E0],"parents":[2147483647,0,0,1,1,2,2,3,3,4,4,5,5,6,6,7,7,8,8,13,13,16,16,22,22],"right_children":[2,4,6,8,10,12,14,16,18,-1,-1,-1,-1,20,-1,-1,22,-1,-1,-1,-1,-1,24,-1,-1],"split_conditions":[2E1,1.8E1,2.32E1,1.71E1,1.89E1,2.16E1,2.56E1,1.27E1,5.052E3,3.0707965E0,3.1460438E0,3.2447374E0,3.3705761E0,2.42E1,3.8169353E0,2.670995E0,5.09E3,2.934635E0,3.0057626E0,3.478455E0,3.595021E0,2.8780296E0,1.61E1,2.8876083E0,2.9463952E0],"split_indices":[1,1,1,1,1,1,1,1,0,0,0,0,0,1,0,0,0,0,0,0,0,0,1,0,0],"split_type":[0,0,0,0,0,0,0,0,0,0,0,0,0,0,0,0,0,0,0,0,0,0,0,0,0],"sum_hessian":[1.07308E5,8.1575E4,2.5733E4,5.1649E4,2.9926E4,2.0291E4,5.442E3,3.0107E4,2.1542E4,1.705E4,1.2876E4,1.2512E4,7.779E3,4.508E3,9.34E2,3.44E2,2.9763E4,2.521E3,1.9021E4,2.692E3,1.816E3,6.468E3,2.3295E4,3.791E3,1.9504E4],"tree_param":{"num_deleted":"0","num_feature":"3","num_nodes":"25","size_leaf_vector":"0"}},{"base_weights":[2.7810957E1,2.7011065E1,2.999272E1,2.644242E1,2.7690586E1,2.9306583E1,3.1660358E1,2.6009718E1,2.6629042E1,2.7400719E1,2.810575E0,2.8775373E0,2.9735262E1,3.1222841E1,3.3821552E1,2.4108999E0,2.6060837E1,2.6122873E0,2.6703089E1,2.6652048E0,2.7481668E0,2.9508224E0,3.0191305E0,3.0821881E0,3.1799302E0,3.2851315E0,3.4875076E0,2.5540016E0,2.6190069E0,2.66012E1,2.7010987E0,2.6707695E0,2.6258614E0],"categories":[],"categories_nodes":[],"categories_segments":[],"categories_sizes":[],"default_left":[0,0,0,0,0,0,0,0,0,0,0,0,0,0,0,0,0,0,0,0,0,0,0,0,0,0,0,0,0,0,0,0,0],"id":7,"left_children":[1,3,5,7,9,11,13,15,17,19,-1,-1,21,23,25,-1,27,-1,29,-1,-1,-1,-1,-1,-1,-1,-1,-1,-1,31,-1,-1,-1],"loss_changes":[1.86432E5,2.9604E4,3.1998E4,2.764E3,3.534E3,3.79E3,6.863E3,6.28E2,4.2E2,5.44E2,0E0,0E0,2.74E2,6.33E2,2.8325E2,0E0,1.77E2,0E0,9.6E1,0E0,0E0,0E0,0E0,0E0,0E0,0E0,0E0,0E0,0E0,1.3E1,0E0,0E0,0E0],"parents":[2147483647,0,0,1,1,2,2,3,3,4,4,5,5,6,6,7,7,8,8,9,9,12,12,13,13,14,14,16,16,18,18,29,29],"right_children":[2,4,6,8,10,12,14,16,18,20,-1,-1,22,24,26,-1,28,-1,30,-1,-1,-1,-1,-1,-1,-1,-1,-1,-1,32,-1,-1,-1],"split_conditions":[1.97E1,1.76E1,2.25E1,1.65E1,1.86E1,2.07E1,2.51E1,1.27E1,5.052E3,5.052E3,2.810575E0,2.8775373E0,2.18E1,2.36E1,2.61E1,2.4108999E0,5.09E3,2.6122873E0,1.73E1,2.6652048E0,2.7481668E0,2.9508224E0,3.0191305E0,3.0821881E0,3.1799302E0,3.2851315E0,3.4875076E0,2.5540016E0,2.6190069E0,5.091E3,2.7010987E0,2.6707695E0,2.6258614E0],"split_indices":[1,1,1,1,1,1,1,1,0,0,0,0,1,1,1,0,0,0,1,0,0,0,0,0,0,0,0,0,0,0,0,0,0],"split_type":[0,0,0,0,0,0,0,0,0,0,0,0,0,0,0,0,0,0,0,0,0,0,0,0,0,0,0,0,0,0,0,0,0],"sum_hessian":[1.07286E5,7.8514E4,2.8772E4,4.2766E4,3.5748E4,2.0398E4,8.374E3,1.2929E4,2.9837E4,2.109E4,1.4658E4,9.14E3,1.1258E4,6.977E3,1.397E3,3.51E2,1.2578E4,3.853E3,2.5984E4,2.09E3,1.9E4,7.56E3,3.698E3,4.147E3,2.83E3,7.44E2,6.53E2,2.54E3,1.0038E4,1.9589E4,6.395E3,1.4885E4,4.704E3],"tree_param":{"num_deleted":"0","num_feature":"3","num_nodes":"33","size_leaf_vector":"0"}},{"base_weights":[2.503339E1,2.4231897E1,2.6816166E1,2.3740107E1,2.474881E1,2.6155685E1,2.8271994E1,2.3363249E1,2.3882898E1,2.4444424E1,2.5050337E0,2.5794123E1,2.661277E0,2.781506E1,2.995732E1,2.1585166E0,2.3412708E1,2.353792E0,2.3983595E1,2.3846185E0,2.4517567E0,2.5301073E0,2.5899303E0,2.757208E0,2.8407974E0,2.9368942E0,3.1343117E0,2.288773E0,2.353646E0,2.4098117E0,2.3663313E0],"categories":[],"categories_nodes":[],"categories_segments":[],"categories_sizes":[],"default_left":[0,0,0,0,0,0,0,0,0,0,0,0,0,0,0,0,0,0,0,0,0,0,0,0,0,0,0,0,0,0,0],"id":8,"left_children":[1,3,5,7,9,11,13,15,17,19,-1,21,-1,23,25,-1,27,-1,29,-1,-1,-1,-1,-1,-1,-1,-1,-1,-1,-1,-1],"loss_changes":[1.53024E5,1.8272E4,3.1322E4,1.492E3,2.704E3,3.106E3,7.171E3,4.18E2,3.92E2,2.03E2,0E0,1.1E1,0E0,3.97E2,8.765E2,0E0,1.245E2,0E0,2.1E2,0E0,0E0,0E0,0E0,0E0,0E0,0E0,0E0,0E0,0E0,0E0,0E0],"parents":[2147483647,0,0,1,1,2,2,3,3,4,4,5,5,6,6,7,7,8,8,9,9,11,11,13,13,14,14,16,16,18,18],"right_children":[2,4,6,8,10,12,14,16,18,20,-1,22,-1,24,26,-1,28,-1,30,-1,-1,-1,-1,-1,-1,-1,-1,-1,-1,-1,-1],"split_conditions":[1.93E1,1.74E1,2.21E1,1.64E1,1.82E1,2.06E1,2.45E1,1.25E1,5.09E3,5.052E3,2.5050337E0,5.09E3,2.661277E0,2.35E1,2.61E1,2.1585166E0,5.09E3,2.353792E0,5.091E3,2.3846185E0,2.4517567E0,2.5301073E0,2.5899303E0,2.757208E0,2.8407974E0,2.9368942E0,3.1343117E0,2.288773E0,2.353646E0,2.4098117E0,2.3663313E0],"split_indices":[1,1,1,1,1,1,1,1,0,0,0,0,0,1,1,0,0,0,0,0,0,0,0,0,0,0,0,0,0,0,0],"split_type":[0,0,0,0,0,0,0,0,0,0,0,0,0,0,0,0,0,0,0,0,0,0,0,0,0,0,0,0,0,0,0],"sum_hessian":[1.07541E5,7.4198E4,3.3343E4,3.8047E4,3.6151E4,2.295E4,1.0393E4,1.05E4,2.7547E4,1.8031E4,1.812E4,1.2846E4,1.0104E4,8.19E3,2.203E3,2.96E2,1.0204E4,6.277E3,2.127E4,2E3,1.6031E4,2.301E3,1.0545E4,5.843E3,2.347E3,1.562E3,6.41E2,1.982E3,8.222E3,1.5613E4,5.657E3],"tree_param":{"num_deleted":"0","num_feature":"3","num_nodes":"31","size_leaf_vector":"0"}},{"base_weights":[2.2536331E1,2.194308E1,2.4498993E1,2.1472054E1,2.2564804E1,2.3973099E1,2.5829363E1,2.1146303E1,2.1678373E1,2.2335499E1,2.299101E0,2.362092E0,2.4375453E0,2.5472624E1,2.7610172E1,1.969088E0,2.1172926E1,2.1536245E0,2.188416E0,2.1696508E0,2.2395502E1,2.5236678E0,2.6109178E0,2.6760027E0,2.8422909E0,2.068755E0,2.125279E1,2.2172613E0,2.2527149E0,2.1336298E0,2.0877206E0],"categories":[],"categories_nodes":[],"categories_segments":[],"categories_sizes":[],"default_left":[0,0,0,0,0,0,0,0,0,0,0,0,0,0,0,0,0,0,0,0,0,0,0,0,0,0,0,0,0,0,0],"id":9,"left_children":[1,3,5,7,9,11,13,15,17,19,-1,-1,-1,21,23,-1,25,-1,-1,-1,27,-1,-1,-1,-1,-1,29,-1,-1,-1,-1],"loss_changes":[1.24496E5,2.3664E4,1.6813E4,2.696E3,2.96E3,1.957E3,3.773E3,2.905E2,3.68E2,4E2,0E0,0E0,0E0,2.245E2,4.3625E1,0E0,2.545E2,0E0,0E0,0E0,1.2E2,0E0,0E0,0E0,0E0,0E0,3.5E1,0E0,0E0,0E0,0E0],"parents":[2147483647,0,0,1,1,2,2,3,3,4,4,5,5,6,6,7,7,8,8,9,9,13,13,14,14,16,16,20,20,26,26],"right_children":[2,4,6,8,10,12,14,16,18,20,-1,-1,-1,22,24,-1,26,-1,-1,-1,28,-1,-1,-1,-1,-1,30,-1,-1,-1,-1],"split_conditions":[2.01E1,1.78E1,2.28E1,1.67E1,1.9E1,2.13E1,2.53E1,1.27E1,1.73E1,5.052E3,2.299101E0,2.362092E0,2.4375453E0,2.42E1,2.63E1,1.969088E0,5.052E3,2.1536245E0,2.188416E0,2.1696508E0,1.82E1,2.5236678E0,2.6109178E0,2.6760027E0,2.8422909E0,2.068755E0,5.091E3,2.2172613E0,2.2527149E0,2.1336298E0,2.0877206E0],"split_indices":[1,1,1,1,1,1,1,1,1,0,0,0,0,1,1,0,0,0,0,0,1,0,0,0,0,0,0,0,0,0,0],"split_type":[0,0,0,0,0,0,0,0,0,0,0,0,0,0,0,0,0,0,0,0,0,0,0,0,0,0,0,0,0,0,0],"sum_hessian":[1.07382E5,8.2467E4,2.4915E4,4.694E4,3.5527E4,1.787E4,7.045E3,1.8242E4,2.8698E4,2.3134E4,1.2393E4,9.561E3,8.309E3,5.882E3,1.163E3,3.41E2,1.7901E4,1.7037E4,1.1661E4,2.017E3,2.1117E4,4.321E3,1.561E3,5.85E2,5.78E2,2.566E3,1.5335E4,7.904E3,1.3213E4,1.25E4,2.835E3],"tree_param":{"num_deleted":"0","num_feature":"3","num_nodes":"31","size_leaf_vector":"0"}},{"base_weights":[2.0282349E1,1.96319E1,2.1723763E1,1.9231503E1,2.0054771E1,2.1192364E1,2.2900957E1,1.8865423E1,1.933348E1,1.9839441E1,2.032061E0,2.0905468E1,2.1555395E0,2.2498905E1,2.41175E1,1.773192E0,1.8913018E0,1.9021027E0,1.9424597E1,1.9304421E0,1.9902972E0,2.0485327E0,2.0995061E0,2.2274055E0,2.2806425E0,2.3688447E0,2.5368257E0,1.9528645E0,1.9125394E0],"categories":[],"categories_nodes":[],"categories_segments":[],"categories_sizes":[],"default_left":[0,0,0,0,0,0,0,0,0,0,0,0,0,0,0,0,0,0,0,0,0,0,0,0,0,0,0,0,0],"id":10,"left_children":[1,3,5,7,9,11,13,15,17,19,-1,21,-1,23,25,-1,-1,-1,27,-1,-1,-1,-1,-1,-1,-1,-1,-1,-1],"loss_changes":[1.0006E5,1.212E4,2.0358E4,1.053E3,1.653E3,1.941E3,4.5195E3,1.13E2,4.75E2,2.91E2,0E0,5.45E1,0E0,3.075E1,7.71125E2,0E0,0E0,0E0,3.4E2,0E0,0E0,0E0,0E0,0E0,0E0,0E0,0E0,0E0,0E0],"parents":[2147483647,0,0,1,1,2,2,3,3,4,4,5,5,6,6,7,7,8,8,9,9,11,11,13,13,14,14,18,18],"right_children":[2,4,6,8,10,12,14,16,18,20,-1,22,-1,24,26,-1,-1,-1,28,-1,-1,-1,-1,-1,-1,-1,-1,-1,-1],"split_conditions":[1.93E1,1.74E1,2.21E1,1.63E1,1.83E1,2.06E1,2.43E1,1.28E1,5.09E3,5.052E3,2.032061E0,5.09E3,2.1555395E0,2.31E1,2.61E1,1.773192E0,1.8913018E0,1.9021027E0,5.091E3,1.9304421E0,1.9902972E0,2.0485327E0,2.0995061E0,2.2274055E0,2.2806425E0,2.3688447E0,2.5368257E0,1.9528645E0,1.9125394E0],"split_indices":[1,1,1,1,1,1,1,1,0,0,0,0,0,1,1,0,0,0,0,0,0,0,0,0,0,0,0,0,0],"split_type":[0,0,0,0,0,0,0,0,0,0,0,0,0,0,0,0,0,0,0,0,0,0,0,0,0,0,0,0,0],"sum_hessian":[1.07181E5,7.3864E4,3.3317E4,3.7964E4,3.59E4,2.2968E4,1.0349E4,8.312E3,2.9652E4,1.9876E4,1.6024E4,1.2862E4,1.0106E4,7.793E3,2.556E3,3.5E2,7.962E3,6.742E3,2.291E4,2.142E3,1.7734E4,2.301E3,1.0561E4,4.544E3,3.249E3,1.918E3,6.38E2,1.6951E4,5.959E3],"tree_param":{"num_deleted":"0","num_feature":"3","num_nodes":"29","size_leaf_vector":"0"}},{"base_weights":[1.8254461E1,1.7662855E1,1.9560074E1,1.7323538E1,1.8069668E1,1.9040873E1,2.053909E1,1.7117193E1,1.7493673E1,1.7852396E1,1.8252958E1,1.8828512E1,1.938859E0,2.0183395E1,2.1681509E1,1.6832384E1,1.7221083E1,1.7240111E0,1.756601E0,1.7364905E0,1.7911866E0,1.7708628E0,1.8298426E0,1.8084363E0,1.887126E0,1.8859825E0,2.0225675E0,2.131511E0,2.283759E0,1.579644E0,1.689324E0,1.6890749E0,1.7317898E1,1.7423996E0,1.6908687E0],"categories":[],"categories_nodes":[],"categories_segments":[],"categories_sizes":[],"default_left":[0,0,0,0,0,0,0,0,0,0,0,0,0,0,0,0,0,0,0,0,0,0,0,0,0,0,0,0,0,0,0,0,0,0,0],"id":11,"left_children":[1,3,5,7,9,11,13,15,17,19,21,23,-1,25,27,29,31,-1,-1,-1,-1,-1,-1,-1,-1,-1,-1,-1,-1,-1,-1,-1,33,-1,-1],"loss_changes":[8.236E4,9.858E3,1.6576E4,1.113E3,1.007E3,1.2465E3,4.2585E3,2.495E2,1.005E2,1.345E2,1.25E2,9.1E1,0E0,1.1225E2,6.69625E2,4.275E1,1.33E2,0E0,0E0,0E0,0E0,0E0,0E0,0E0,0E0,0E0,0E0,0E0,0E0,0E0,0E0,0E0,1.505E2,0E0,0E0],"parents":[2147483647,0,0,1,1,2,2,3,3,4,4,5,5,6,6,7,7,8,8,9,9,10,10,11,11,13,13,14,14,15,15,16,16,32,32],"right_children":[2,4,6,8,10,12,14,16,18,20,22,24,-1,26,28,30,32,-1,-1,-1,-1,-1,-1,-1,-1,-1,-1,-1,-1,-1,-1,-1,34,-1,-1],"split_conditions":[1.93E1,1.75E1,2.19E1,1.67E1,1.82E1,2.07E1,2.42E1,1.61E1,5.09E3,5.052E3,5.052E3,5.052E3,1.938859E0,5.052E3,2.61E1,1.25E1,5.09E3,1.7240111E0,1.756601E0,1.7364905E0,1.7911866E0,1.7708628E0,1.8298426E0,1.8084363E0,1.887126E0,1.8859825E0,2.0225675E0,2.131511E0,2.283759E0,1.579644E0,1.689324E0,1.6890749E0,5.091E3,1.7423996E0,1.6908687E0],"split_indices":[1,1,1,1,1,1,1,1,0,0,0,0,0,0,1,1,0,0,0,0,0,0,0,0,0,0,0,0,0,0,0,0,0,0,0],"split_type":[0,0,0,0,0,0,0,0,0,0,0,0,0,0,0,0,0,0,0,0,0,0,0,0,0,0,0,0,0,0,0,0,0,0,0],"sum_hessian":[1.07075E5,7.3696E4,3.3379E4,4.0205E4,3.3491E4,2.1825E4,1.1554E4,1.8215E4,2.199E4,1.537E4,1.8121E4,1.3584E4,8.241E3,8.825E3,2.729E3,4.912E3,1.3303E4,4.934E3,1.7056E4,1.703E3,1.3667E4,1.427E3,1.6694E4,7.61E2,1.2823E4,2.87E2,8.538E3,2.087E3,6.42E2,2.87E2,4.625E3,3.055E3,1.0248E4,8.105E3,2.143E3],"tree_param":{"num_deleted":"0","num_feature":"3","num_nodes":"35","size_leaf_vector":"0"}},{"base_weights":[1.6424902E1,1.5991598E1,1.7867533E1,1.5641654E1,1.6455618E1,1.7541279E1,1.9033955E1,1.5446074E1,1.5847818E1,1.6269249E1,1.67468E1,1.7263985E1,1.7900751E1,1.8712043E0,2.0180514E0,1.515513E0,1.5525728E1,1.5510716E0,1.5892947E0,1.5783765E0,1.6316003E0,1.6390847E0,1.6841404E0,1.6461447E0,1.7310442E0,1.6903193E0,1.7949322E0,1.4212383E0,1.55458555E1,1.5629469E0,1.5233033E0],"categories":[],"categories_nodes":[],"categories_segments":[],"categories_sizes":[],"default_left":[0,0,0,0,0,0,0,0,0,0,0,0,0,0,0,0,0,0,0,0,0,0,0,0,0,0,0,0,0,0,0],"id":12,"left_children":[1,3,5,7,9,11,13,15,17,19,21,23,25,-1,-1,-1,27,-1,-1,-1,-1,-1,-1,-1,-1,-1,-1,-1,29,-1,-1],"loss_changes":[6.6854E4,1.3156E4,9.104E3,1.654E3,1.654E3,1.6245E3,1.618875E3,3.265E2,1.02E2,2.345E2,1.8925E2,1.2425E2,1.0425E2,0E0,0E0,0E0,2.8E2,0E0,0E0,0E0,0E0,0E0,0E0,0E0,0E0,0E0,0E0,0E0,2.5E2,0E0,0E0],"parents":[2147483647,0,0,1,1,2,2,3,3,4,4,5,5,6,6,7,7,8,8,9,9,10,10,11,11,12,12,16,16,28,28],"right_children":[2,4,6,8,10,12,14,16,18,20,22,24,26,-1,-1,-1,28,-1,-1,-1,-1,-1,-1,-1,-1,-1,-1,-1,30,-1,-1],"split_conditions":[2.01E1,1.78E1,2.32E1,1.69E1,1.89E1,2.15E1,2.53E1,5.09E3,5.052E3,5.052E3,5.09E3,5.052E3,5.052E3,1.8712043E0,2.0180514E0,1.515513E0,1.27E1,1.5510716E0,1.5892947E0,1.5783765E0,1.6316003E0,1.6390847E0,1.6841404E0,1.6461447E0,1.7310442E0,1.6903193E0,1.7949322E0,1.4212383E0,5.091E3,1.5629469E0,1.5233033E0],"split_indices":[1,1,1,1,1,1,1,0,0,0,0,0,0,0,0,0,1,0,0,0,0,0,0,0,0,0,0,0,0,0,0],"split_type":[0,0,0,0,0,0,0,0,0,0,0,0,0,0,0,0,0,0,0,0,0,0,0,0,0,0,0,0,0,0,0],"sum_hessian":[1.07409E5,8.2609E4,2.48E4,4.7113E4,3.5496E4,1.9392E4,5.408E3,2.4216E4,2.2897E4,2.1678E4,1.3818E4,1.0975E4,8.417E3,4.236E3,1.172E3,5.246E3,1.897E4,2.744E3,2.0153E4,1.934E3,1.9744E4,2.938E3,1.088E4,6.2E2,1.0355E4,4.07E2,8.01E3,2.97E2,1.8673E4,1.4696E4,3.977E3],"tree_param":{"num_deleted":"0","num_feature":"3","num_nodes":"31","size_leaf_vector":"0"}},{"base_weights":[1.4786843E1,1.4311753E1,1.5843607E1,1.3996377E1,1.4601085E1,1.5458166E1,1.6758638E1,1.3588308E1,1.4061045E1,1.4427255E1,1.4794486E1,1.5196179E1,1.5691858E1,1.6471775E1,1.7830524E1,1.2762871E0,1.3643762E1,1.3732158E0,1.41131735E1,1.4068555E0,1.4472544E0,1.4696505E0,1.4983218E0,1.4588114E0,1.5231661E0,1.4985576E0,1.5733745E1,1.630776E0,1.6821278E0,1.7467736E0,1.8754648E0,1.3034979E0,1.3709737E0,1.4182788E0,1.3872197E0,1.5583489E0,1.5919966E0],"categories":[],"categories_nodes":[],"categories_segments":[],"categories_sizes":[],"default_left":[0,0,0,0,0,0,0,0,0,0,0,0,0,0,0,0,0,0,0,0,0,0,0,0,0,0,0,0,0,0,0,0,0,0,0,0,0],"id":13,"left_children":[1,3,5,7,9,11,13,15,17,19,21,23,25,27,29,-1,31,-1,33,-1,-1,-1,-1,-1,-1,-1,35,-1,-1,-1,-1,-1,-1,-1,-1,-1,-1],"loss_changes":[5.3538E4,6.538E3,1.1451E4,7.425E2,1.081E3,1.193E3,2.7285E3,4.875E1,3.295E2,1.265E2,1.1625E2,1.625E1,1.2875E2,1.71E2,3.640625E2,0E0,3.9375E0,0E0,2.445E2,0E0,0E0,0E0,0E0,0E0,0E0,0E0,7.675E1,0E0,0E0,0E0,0E0,0E0,0E0,0E0,0E0,0E0,0E0],"parents":[2147483647,0,0,1,1,2,2,3,3,4,4,5,5,6,6,7,7,8,8,9,9,10,10,11,11,12,12,13,13,14,14,16,16,18,18,26,26],"right_children":[2,4,6,8,10,12,14,16,18,20,22,24,26,28,30,-1,32,-1,34,-1,-1,-1,-1,-1,-1,-1,36,-1,-1,-1,-1,-1,-1,-1,-1,-1,-1],"split_conditions":[1.93E1,1.73E1,2.22E1,1.61E1,1.82E1,2.04E1,2.46E1,1.27E1,5.052E3,5.052E3,5.091E3,5.052E3,5.052E3,2.35E1,2.63E1,1.2762871E0,5.052E3,1.3732158E0,5.091E3,1.4068555E0,1.4472544E0,1.4696505E0,1.4983218E0,1.4588114E0,1.5231661E0,1.4985576E0,2.13E1,1.630776E0,1.6821278E0,1.7467736E0,1.8754648E0,1.3034979E0,1.3709737E0,1.4182788E0,1.3872197E0,1.5583489E0,1.5919966E0],"split_indices":[1,1,1,1,1,1,1,1,0,0,0,0,0,1,1,0,0,0,0,0,0,0,0,0,0,0,1,0,0,0,0,0,0,0,0,0,0],"split_type":[0,0,0,0,0,0,0,0,0,0,0,0,0,0,0,0,0,0,0,0,0,0,0,0,0,0,0,0,0,0,0,0,0,0,0,0,0],"sum_hessian":[1.07087E5,7.3885E4,3.3202E4,3.5375E4,3.851E4,2.3374E4,9.828E3,4.868E3,3.0507E4,2.0321E4,1.8189E4,1.1051E4,1.2323E4,7.766E3,2.062E3,3.21E2,4.547E3,4.21E3,2.6297E4,2.313E3,1.8008E4,1.2025E4,6.164E3,6.32E2,1.0419E4,7.1E2,1.1613E4,5.318E3,2.448E3,1.495E3,5.67E2,4.64E2,4.083E3,2.0358E4,5.939E3,6.474E3,5.139E3],"tree_param":{"num_deleted":"0","num_feature":"3","num_nodes":"37","size_leaf_vector":"0"}},{"base_weights":[1.3308094E1,1.2930345E1,1.4386811E1,1.2467966E1,1.3243612E1,1.410772E1,1.5351607E1,1.2388545E1,1.2886053E1,1.2846964E1,1.3493392E1,1.3484035E1,1.4345737E1,1.5150475E1,1.6480513E0,1.2270468E1,1.2517389E1,1.2743737E0,1.3165852E0,1.27008295E1,1.3226186E1,1.3387533E1,1.37318325E1,1.3241048E0,1.3813075E0,1.4103288E1,1.4638403E1,1.4140586E0,1.5308503E1,1.1526152E1,1.2298636E1,1.2302247E1,1.2581066E0,1.1734836E0,1.2715827E0,1.1933994E1,1.3318615E1,1.3277697E1,1.3521727E1,1.3669581E1,1.4100014E0,1.4331963E0,1.397934E1,1.4909476E0,1.44772415E1,1.5197094E1,1.6062969E0,3.3485052E-1,1.153523E0,6.9992507E-1,1.2301232E0,7.065746E-1,1.2308649E0,1.2095689E0,9.8114645E-1,1.3391914E0,1.2631295E0,1.3376592E0,1.3032265E0,1.3568199E0,1.3010244E0,1.3859766E0,1.353038E0,1.3773233E0,1.4310681E0,1.4279588E0,1.4818076E0,1.5644912E0,1.4871613E0],"categories":[],"categories_nodes":[],"categories_segments":[],"categories_sizes":[],"default_left":[0,0,0,0,0,0,0,0,0,0,0,0,0,0,0,0,0,0,0,0,0,0,0,0,0,0,0,0,0,0,0,0,0,0,0,0,0,0,0,0,0,0,0,0,0,0,0,0,0,0,0,0,0,0,0,0,0,0,0,0,0,0,0,0,0,0,0,0,0],"id":14,"left_children":[1,3,5,7,9,11,13,15,17,19,21,23,25,27,-1,29,31,-1,-1,33,35,37,39,-1,-1,41,43,-1,45,47,49,51,-1,-1,-1,53,55,57,59,61,-1,-1,63,-1,65,67,-1,-1,-1,-1,-1,-1,-1,-1,-1,-1,-1,-1,-1,-1,-1,-1,-1,-1,-1,-1,-1,-1,-1],"loss_changes":[4.3638E4,1.1374E4,7.2915E3,9.095E2,4.5295E3,3.019E3,1.16825E3,2.585E2,3.58125E1,8.4975E2,5.51E2,2.96375E2,9.0375E2,6.31375E2,0E0,1.555E2,2.1875E1,0E0,0E0,4.3E1,4.4825E2,1.1825E2,1.1625E1,0E0,0E0,4.2875E1,9.2875E1,0E0,1.41E2,9.375E-1,1.015E2,1.334375E1,0E0,0E0,0E0,1.1015625E0,6.94375E1,9.6625E1,3.825E1,1.5E1,0E0,0E0,1.85875E2,0E0,8.90625E1,3.52E2,0E0,0E0,0E0,0E0,0E0,0E0,0E0,0E0,0E0,0E0,0E0,0E0,0E0,0E0,0E0,0E0,0E0,0E0,0E0,0E0,0E0,0E0,0E0],"parents":[2147483647,0,0,1,1,2,2,3,3,4,4,5,5,6,6,7,7,8,8,9,9,10,10,11,11,12,12,13,13,15,15,16,16,19,19,20,20,21,21,22,22,25,25,26,26,28,28,29,29,30,30,31,31,35,35,36,36,37,37,38,38,39,39,42,42,44,44,45,45],"right_children":[2,4,6,8,10,12,14,16,18,20,22,24,26,28,-1,30,32,-1,-1,34,36,38,40,-1,-1,42,44,-1,46,48,50,52,-1,-1,-1,54,56,58,60,62,-1,-1,64,-1,66,68,-1,-1,-1,-1,-1,-1,-1,-1,-1,-1,-1,-1,-1,-1,-1,-1,-1,-1,-1,-1,-1,-1,-1],"split_conditions":[1.98E1,1.38E1,2.3E1,1.85E1,1.73E1,1.37896E1,2.56E1,1.34702E1,1.35514E1,1.40298E1,1.88E1,2.13E1,2.12E1,1.37512E1,1.6480513E0,1.29106E1,1.65E1,1.2743737E0,1.3165852E0,1.25E1,1.59E1,1.40656E1,1.44518E1,1.3241048E0,1.3813075E0,1.38082E1,1.38082E1,1.4140586E0,1.47272E1,1.17E1,1.22E1,1.2E1,1.2581066E0,1.1734836E0,1.2715827E0,1.58296E1,1.57304E1,1.38082E1,1.52668E1,1.38082E1,1.4100014E0,1.4331963E0,1.42696E1,1.4909476E0,1.43326E1,1.38082E1,1.6062969E0,3.3485052E-1,1.153523E0,6.9992507E-1,1.2301232E0,7.065746E-1,1.2308649E0,1.2095689E0,9.8114645E-1,1.3391914E0,1.2631295E0,1.3376592E0,1.3032265E0,1.3568199E0,1.3010244E0,1.3859766E0,1.353038E0,1.3773233E0,1.4310681E0,1.4279588E0,1.4818076E0,1.5644912E0,1.4871613E0],"split_indices":[1,2,1,1,1,2,1,2,2,2,1,1,1,2,0,2,1,0,0,1,1,2,2,0,0,2,2,0,2,1,1,1,0,0,0,2,2,2,2,2,0,0,2,0,2,2,0,0,0,0,0,0,0,0,0,0,0,0,0,0,0,0,0,0,0,0,0,0,0],"split_type":[0,0,0,0,0,0,0,0,0,0,0,0,0,0,0,0,0,0,0,0,0,0,0,0,0,0,0,0,0,0,0,0,0,0,0,0,0,0,0,0,0,0,0,0,0,0,0,0,0,0,0,0,0,0,0,0,0,0,0,0,0,0,0,0,0,0,0,0,0],"sum_hessian":[1.07544E5,7.9661E4,2.7883E4,3.219E4,4.7471E4,2.1639E4,6.244E3,2.7077E4,5.113E3,1.8363E4,2.9108E4,5.993E3,1.5646E4,5.312E3,9.32E2,1.4179E4,1.2898E4,3.42E3,1.693E3,1.328E4,5.083E3,2.0198E4,8.91E3,3.471E3,2.522E3,8.584E3,7.062E3,7.31E2,4.581E3,5.32E2,1.3647E4,2.99E3,9.908E3,2.15E2,1.3065E4,3.48E2,4.735E3,1.1162E4,9.036E3,7.654E3,1.256E3,2.977E3,5.607E3,2.599E3,4.463E3,4.01E3,5.71E2,1E0,5.31E2,8E0,1.3639E4,5E0,2.985E3,3.19E2,2.9E1,4.262E3,4.73E2,7.918E3,3.244E3,8.26E3,7.76E2,3.193E3,4.461E3,3.483E3,2.124E3,2.852E3,1.611E3,1.668E3,2.342E3],"tree_param":{"num_deleted":"0","num_feature":"3","num_nodes":"69","size_leaf_vector":"0"}},{"base_weights":[1.1975678E1,1.1397269E1,1.2308782E1,1.1312039E1,1.1740015E1,1.120668E0,1.2344978E1,1.1231324E1,1.145362E0,1.1869248E0,1.1300519E0,1.2246874E1,1.2680934E1,1.1368972E0,1.1081839E1,1.2395376E1,1.2093776E1,1.2707256E1,1.1518209E0,1.0082728E1,1.1148701E0,1.1936332E0,1.2476175E0,1.16371765E1,1.2245343E1,1.2625113E0,1.3045576E0,1.121983E0,8.727482E-1,1.1705695E0,1.1220297E0,1.2136154E0,1.2437514E0],"categories":[],"categories_nodes":[],"categories_segments":[],"categories_sizes":[],"default_left":[0,0,0,0,0,0,0,0,0,0,0,0,0,0,0,0,0,0,0,0,0,0,0,0,0,0,0,0,0,0,0,0,0],"id":15,"left_children":[1,3,5,7,9,-1,11,13,-1,-1,-1,15,17,-1,19,21,23,25,-1,27,-1,-1,-1,29,31,-1,-1,-1,-1,-1,-1,-1,-1],"loss_changes":[2.0546E4,1.014E3,2.58E3,2.31E2,3.0825E2,0E0,2.017E3,2.8775E2,0E0,0E0,0E0,1.011E3,3.09E2,0E0,5.335E2,8.11E2,1.6005E3,2.3925E2,0E0,8.5291406E2,0E0,0E0,0E0,4.85E1,2.4525E2,0E0,0E0,0E0,0E0,0E0,0E0,0E0,0E0],"parents":[2147483647,0,0,1,1,2,2,3,3,4,4,6,6,7,7,11,11,12,12,14,14,15,15,16,16,17,17,19,19,23,23,24,24],"right_children":[2,4,6,8,10,-1,12,14,-1,-1,-1,16,18,-1,20,22,24,26,-1,28,-1,-1,-1,30,32,-1,-1,-1,-1,-1,-1,-1,-1],"split_conditions":[1.38E1,1.36682E1,5.052E3,1.34702E1,5.091E3,1.120668E0,1.43276E1,5.09E3,1.145362E0,1.1869248E0,1.1300519E0,1.38082E1,1.5933E1,1.1368972E0,1.30078E1,5.09E3,1.39302E1,1.5068E1,1.1518209E0,1.28052E1,1.1148701E0,1.1936332E0,1.2476175E0,5.091E3,5.091E3,1.2625113E0,1.3045576E0,1.121983E0,8.727482E-1,1.1705695E0,1.1220297E0,1.2136154E0,1.2437514E0],"split_indices":[2,2,0,2,0,0,2,0,0,0,0,2,2,0,2,0,2,2,0,2,0,0,0,0,0,0,0,0,0,0,0,0,0],"split_type":[0,0,0,0,0,0,0,0,0,0,0,0,0,0,0,0,0,0,0,0,0,0,0,0,0,0,0,0,0,0,0,0,0],"sum_hessian":[1.07367E5,3.9249E4,6.8118E4,3.146E4,7.789E3,2.176E3,6.5942E4,2.0088E4,1.1372E4,5.999E3,1.79E3,5.1067E4,1.4875E4,1.0419E4,9.669E3,2.5882E4,2.5185E4,1.4536E4,3.39E2,6.16E2,9.053E3,3.896E3,2.1986E4,6.296E3,1.8889E4,1.1727E4,2.809E3,3.31E2,2.85E2,5.384E3,9.12E2,1.2086E4,6.803E3],"tree_param":{"num_deleted":"0","num_feature":"3","num_nodes":"33","size_leaf_vector":"0"}},{"base_weights":[1.0774819E1,1.0468426E1,1.1840982E1,1.0254677E1,1.0856587E1,1.1598957E1,1.2658985E1,1.0118475E1,1.0427647E0,1.0731192E1,1.1043204E1,1.1441085E1,1.1919081E0,1.2455231E1,1.3643552E1,9.89124E0,1.0181027E1,1.0423957E0,1.0757436E0,1.0786569E0,1.1105169E0,1.0917995E0,1.1471463E1,1.233698E0,1.2803513E0,1.3194216E0,1.4238352E0,9.52349E-1,9.966199E0,1.02314005E1,9.954678E-1,1.1359483E0,1.1592249E0,9.319833E-1,1.0004526E0,1.0008439E0,1.0317789E0],"categories":[],"categories_nodes":[],"categories_segments":[],"categories_sizes":[],"default_left":[0,0,0,0,0,0,0,0,0,0,0,0,0,0,0,0,0,0,0,0,0,0,0,0,0,0,0,0,0,0,0,0,0,0,0,0,0],"id":16,"left_children":[1,3,5,7,9,11,13,15,-1,17,19,21,-1,23,25,27,29,-1,-1,-1,-1,-1,31,-1,-1,-1,-1,-1,33,35,-1,-1,-1,-1,-1,-1,-1],"loss_changes":[3.4887E4,6.797E3,4.5885E3,1.16E3,5.73E2,7.97E2,9.234375E2,3.27E2,0E0,3.0625E1,6.85E1,7.1875E1,0E0,2.84375E1,5.909375E1,8.50625E1,1.665E2,0E0,0E0,0E0,0E0,0E0,2.6375E1,0E0,0E0,0E0,0E0,0E0,4.0625E1,2.6725E2,0E0,0E0,0E0,0E0,0E0,0E0,0E0],"parents":[2147483647,0,0,1,1,2,2,3,3,4,4,5,5,6,6,7,7,9,9,10,10,11,11,13,13,14,14,15,15,16,16,22,22,28,28,29,29],"right_children":[2,4,6,8,10,12,14,16,-1,18,20,22,-1,24,26,28,30,-1,-1,-1,-1,-1,32,-1,-1,-1,-1,-1,34,36,-1,-1,-1,-1,-1,-1,-1],"split_conditions":[2.02E1,1.81E1,2.32E1,1.71E1,1.91E1,2.19E1,2.56E1,1.62E1,1.0427647E0,5.052E3,5.09E3,5.052E3,1.1919081E0,2.46E1,2.81E1,5.09E3,5.091E3,1.0423957E0,1.0757436E0,1.0786569E0,1.1105169E0,1.0917995E0,2.1E1,1.233698E0,1.2803513E0,1.3194216E0,1.4238352E0,9.52349E-1,1.28E1,5.09E3,9.954678E-1,1.1359483E0,1.1592249E0,9.319833E-1,1.0004526E0,1.0008439E0,1.0317789E0],"split_indices":[1,1,1,1,1,1,1,1,0,0,0,0,0,1,1,0,0,0,0,0,0,0,1,0,0,0,0,0,1,0,0,0,0,0,0,0,0],"split_type":[0,0,0,0,0,0,0,0,0,0,0,0,0,0,0,0,0,0,0,0,0,0,0,0,0,0,0,0,0,0,0,0,0,0,0,0,0],"sum_hessian":[1.07179E5,8.3262E4,2.3917E4,5.3712E4,2.955E4,1.8468E4,5.449E3,3.0083E4,2.3629E4,1.7709E4,1.1841E4,1.2393E4,6.075E3,4.526E3,9.23E2,6.528E3,2.3555E4,1.425E3,1.6284E4,2.337E3,9.504E3,7E2,1.1693E4,3.406E3,1.12E3,5.39E2,3.84E2,1.127E3,5.401E3,1.9231E4,4.324E3,6.117E3,5.576E3,3.16E2,5.085E3,5.403E3,1.3828E4],"tree_param":{"num_deleted":"0","num_feature":"3","num_nodes":"37","size_leaf_vector":"0"}},{"base_weights":[9.700773E0,9.428504E0,1.0653104E1,9.061632E0,9.673454E0,1.0475619E1,1.1552171E1,8.986353E0,9.392871E0,9.321871E0,9.875914E0,9.9530325E0,1.0665497E1,1.1350724E1,1.2481126E0,5.0214446E-1,8.988937E0,9.2886496E-1,9.6407425E-1,9.211478E0,9.671021E0,9.7505455E0,1.0061825E1,9.8036623E-1,1.0276943E0,1.0495251E1,1.0931832E1,1.0380886E0,1.1459738E1,8.882409E0,9.075778E0,9.110617E-1,9.294452E-1,8.482138E0,9.758766E0,9.643811E0,9.867719E0,1.019803E1,9.986635E0,1.0682346E0,1.0386217E1,1.1218896E0,1.0767099E1,1.1347874E1,1.2053038E0,8.3622074E-1,8.905654E-1,8.9761E-1,9.1571015E-1,2.9433727E-1,8.526967E-1,9.8485136E-1,9.214856E-1,9.7351474E-1,9.36302E-1,9.8836184E-1,9.175809E-1,1.0025613E0,1.0349699E0,9.858479E-1,1.0231807E0,1.0222118E0,1.0641196E0,1.0578732E0,1.1098359E0,1.17844E0,1.101364E0],"categories":[],"categories_nodes":[],"categories_segments":[],"categories_sizes":[],"default_left":[0,0,0,0,0,0,0,0,0,0,0,0,0,0,0,0,0,0,0,0,0,0,0,0,0,0,0,0,0,0,0,0,0,0,0,0,0,0,0,0,0,0,0,0,0,0,0,0,0,0,0,0,0,0,0,0,0,0,0,0,0,0,0,0,0,0,0],"id":17,"left_children":[1,3,5,7,9,11,13,15,17,19,21,23,25,27,-1,-1,29,-1,-1,31,33,35,37,-1,-1,39,41,-1,43,45,47,-1,-1,49,51,53,55,57,59,-1,61,-1,63,65,-1,-1,-1,-1,-1,-1,-1,-1,-1,-1,-1,-1,-1,-1,-1,-1,-1,-1,-1,-1,-1,-1,-1],"loss_changes":[2.7685E4,7.4025E3,3.67975E3,7.48E2,3.464E3,1.86875E3,5.913125E2,2.3375E2,6.9625E1,6.15375E2,6.405E2,1.565625E2,5.46625E2,2.225625E2,0E0,0E0,1.71E2,0E0,0E0,3.1625E1,3.730625E2,1.42E2,2.85E1,0E0,0E0,7.1E1,1.47E2,0E0,5.53125E1,7.375E1,3.9E1,0E0,0E0,5.1376953E1,1.075625E2,1.64375E2,8.3125E0,1.34375E1,1.583125E2,0E0,1.28625E2,0E0,1.0865625E2,2.279375E2,0E0,0E0,0E0,0E0,0E0,0E0,0E0,0E0,0E0,0E0,0E0,0E0,0E0,0E0,0E0,0E0,0E0,0E0,0E0,0E0,0E0,0E0,0E0],"parents":[2147483647,0,0,1,1,2,2,3,3,4,4,5,5,6,6,7,7,8,8,9,9,10,10,11,11,12,12,13,13,16,16,19,19,20,20,21,21,22,22,25,25,26,26,28,28,29,29,30,30,33,33,34,34,35,35,36,36,37,37,38,38,40,40,42,42,43,43],"right_children":[2,4,6,8,10,12,14,16,18,20,22,24,26,28,-1,-1,30,-1,-1,32,34,36,38,-1,-1,40,42,-1,44,46,48,-1,-1,50,52,54,56,58,60,-1,62,-1,64,66,-1,-1,-1,-1,-1,-1,-1,-1,-1,-1,-1,-1,-1,-1,-1,-1,-1,-1,-1,-1,-1,-1,-1],"split_conditions":[2.02E1,1.38E1,2.37E1,1.85E1,1.73E1,1.37882E1,2.6E1,1.36E1,1.3607E1,1.40886E1,1.87E1,2.2E1,2.19E1,1.38E1,1.2481126E0,5.0214446E-1,1.3428E1,9.2886496E-1,9.6407425E-1,1.66E1,1.59E1,1.40098E1,1.38082E1,9.8036623E-1,1.0276943E0,1.38082E1,1.38082E1,1.0380886E0,1.47272E1,1.29106E1,1.69E1,9.110617E-1,9.294452E-1,1.13E1,1.56074E1,1.38082E1,1.58296E1,1.93E1,1.433E1,1.0682346E0,1.4289E1,1.1218896E0,1.43326E1,1.38082E1,1.2053038E0,8.3622074E-1,8.905654E-1,8.9761E-1,9.1571015E-1,2.9433727E-1,8.526967E-1,9.8485136E-1,9.214856E-1,9.7351474E-1,9.36302E-1,9.8836184E-1,9.175809E-1,1.0025613E0,1.0349699E0,9.858479E-1,1.0231807E0,1.0222118E0,1.0641196E0,1.0578732E0,1.1098359E0,1.17844E0,1.101364E0],"split_indices":[1,2,1,1,1,2,1,1,2,2,1,1,1,2,0,0,2,0,0,1,1,2,2,0,0,2,2,0,2,2,1,0,0,1,2,2,2,1,2,0,2,0,2,2,0,0,0,0,0,0,0,0,0,0,0,0,0,0,0,0,0,0,0,0,0,0,0],"split_type":[0,0,0,0,0,0,0,0,0,0,0,0,0,0,0,0,0,0,0,0,0,0,0,0,0,0,0,0,0,0,0,0,0,0,0,0,0,0,0,0,0,0,0,0,0,0,0,0,0,0,0,0,0,0,0,0,0,0,0,0,0,0,0,0,0,0,0],"sum_hessian":[1.07161E5,8.3344E4,2.3817E4,3.3383E4,4.9961E4,1.9901E4,3.916E3,2.7224E4,6.159E3,1.8274E4,3.1687E4,5.318E3,1.4583E4,3.229E3,6.87E2,1.9E1,2.7205E4,4.363E3,1.796E3,1.3905E4,4.369E3,1.8957E4,1.273E4,3.661E3,1.657E3,8.921E3,5.662E3,3.36E2,2.893E3,1.2264E4,1.4941E4,6.326E3,7.579E3,3.07E2,4.062E3,9.964E3,8.993E3,4.48E3,8.25E3,3.249E3,5.672E3,2.04E3,3.622E3,2.451E3,4.42E2,5.4E2,1.1724E4,6.763E3,8.178E3,3E0,3.04E2,3.472E3,5.9E2,7.493E3,2.471E3,8.778E3,2.15E2,2.128E3,2.352E3,5.445E3,2.805E3,3.476E3,2.196E3,2.33E3,1.292E3,1.048E3,1.403E3],"tree_param":{"num_deleted":"0","num_feature":"3","num_nodes":"67","size_leaf_vector":"0"}},{"base_weights":[8.731492E0,8.283704E0,8.9908905E0,8.218602E0,8.544141E0,8.0715084E-1,9.021546E0,8.156468E0,8.327222E0,8.6575425E-1,8.156623E-1,8.947755E0,9.350989E0,8.3461726E-1,8.050046E0,8.4052193E-1,8.1558037E-1,9.062217E0,8.842705E0,9.380911E0,8.308115E0,7.3951907E0,8.1043625E-1,8.6831504E-1,9.1291046E-1,8.50893E0,8.984518E0,9.286528E0,9.673779E0,7.2938627E-1,8.5878354E-1,8.242197E-1,6.8318254E-1,8.35117E-1,8.6378556E-1,8.898762E-1,9.1082364E-1,9.119774E-1,9.349634E-1,9.745571E-1,8.9762133E-1],"categories":[],"categories_nodes":[],"categories_segments":[],"categories_sizes":[],"default_left":[0,0,0,0,0,0,0,0,0,0,0,0,0,0,0,0,0,0,0,0,0,0,0,0,0,0,0,0,0,0,0,0,0,0,0,0,0,0,0,0,0],"id":18,"left_children":[1,3,5,7,9,-1,11,13,15,-1,-1,17,19,-1,21,-1,-1,23,25,27,29,31,-1,-1,-1,33,35,37,39,-1,-1,-1,-1,-1,-1,-1,-1,-1,-1,-1,-1],"loss_changes":[1.2403E4,5.9825E2,1.844E3,1.45E2,2.746875E2,0E0,1.516E3,3.39125E2,8.44375E1,0E0,0E0,5.665E2,2.9725E2,0E0,3.995625E2,0E0,0E0,5.72E2,1.253E3,2.328125E2,3.495703E1,4.2134375E2,0E0,0E0,0E0,9.8625E1,1.27875E2,8E0,5.384375E1,0E0,0E0,0E0,0E0,0E0,0E0,0E0,0E0,0E0,0E0,0E0,0E0],"parents":[2147483647,0,0,1,1,2,2,3,3,4,4,6,6,7,7,8,8,11,11,12,12,14,14,17,17,18,18,19,19,20,20,21,21,25,25,26,26,27,27,28,28],"right_children":[2,4,6,8,10,-1,12,14,16,-1,-1,18,20,-1,22,-1,-1,24,26,28,30,32,-1,-1,-1,34,36,38,40,-1,-1,-1,-1,-1,-1,-1,-1,-1,-1,-1,-1],"split_conditions":[1.38E1,1.36682E1,5.052E3,1.34702E1,5.091E3,8.0715084E-1,1.43912E1,5.052E3,5.091E3,8.6575425E-1,8.156623E-1,1.38082E1,1.5933E1,8.3461726E-1,1.3048E1,8.4052193E-1,8.1558037E-1,5.09E3,1.39718E1,1.5068E1,5.09E3,1.28052E1,8.1043625E-1,8.6831504E-1,9.1291046E-1,1.38706E1,5.091E3,5.09E3,1.58296E1,7.2938627E-1,8.5878354E-1,8.242197E-1,6.8318254E-1,8.35117E-1,8.6378556E-1,8.898762E-1,9.1082364E-1,9.119774E-1,9.349634E-1,9.745571E-1,8.9762133E-1],"split_indices":[2,2,0,2,0,0,2,0,0,0,0,2,2,0,2,0,0,0,2,2,0,2,0,0,0,2,0,0,2,0,0,0,0,0,0,0,0,0,0,0,0],"split_type":[0,0,0,0,0,0,0,0,0,0,0,0,0,0,0,0,0,0,0,0,0,0,0,0,0,0,0,0,0,0,0,0,0,0,0,0,0,0,0,0,0],"sum_hessian":[1.0742E5,3.9414E4,6.8006E4,3.1558E4,7.856E3,2.203E3,6.5803E4,2.0123E4,1.1435E4,6.061E3,1.795E3,5.3784E4,1.2019E4,7.204E3,1.2919E4,7.826E3,3.609E3,2.5698E4,2.8086E4,1.1676E4,3.43E2,1E3,1.1919E4,3.874E3,2.1824E4,8.393E3,1.9693E4,8.855E3,2.821E3,8E1,2.63E2,3.94E2,6.06E2,3.804E3,4.589E3,1.1674E4,8.019E3,2.471E3,6.384E3,2.546E3,2.75E2],"tree_param":{"num_deleted":"0","num_feature":"3","num_nodes":"41","size_leaf_vector":"0"}},{"base_weights":[7.857514E0,7.546781E0,8.513548E0,7.284829E0,7.734006E0,8.261709E0,9.09713E0,6.6249666E0,7.2980824E0,7.45291E0,7.894552E0,7.8222117E0,8.386303E0,8.928499E0,9.719304E0,7.388862E-1,6.42789E0,7.17166E0,7.3792977E0,7.349487E0,7.678886E0,7.827808E0,8.049316E0,7.701218E-1,8.066373E-1,8.234701E0,8.573988E0,8.444552E0,9.072478E0,9.534593E0,1.0694914E0,6.174452E-1,6.870121E-1,3.6755054E0,7.1758475E0,7.3472977E0,7.5732917E-1,7.175572E0,7.3895085E-1,6.4664774E0,7.736268E0,7.6205435E0,7.9037952E0,8.0751956E-1,7.391437E-1,8.202647E0,8.59923E0,8.581913E0,6.3171744E-1,8.142607E0,8.5882294E-1,9.3614334E-1,8.915403E0,9.879836E0,9.242177E0,4.0619847E-1,6.4676665E-2,6.7546624E-1,7.200009E-1,7.3084056E-1,7.4612856E-1,4.6870443E-1,7.184383E-1,6.558973E-1,3.8311744E-1,7.791188E-1,7.157693E-1,7.5366694E-1,7.934348E-1,7.9977685E-1,7.7878976E-1,8.3355397E-1,8.0954343E-1,8.8333845E-1,7.61018E-1,8.5509557E-1,9.2365307E-1,8.1626666E-1,4.0106925E-1,8.770179E-1,9.362182E-1,8.269933E-1,1.0022651E0,8.8973427E-1,9.7714484E-1],"categories":[],"categories_nodes":[],"categories_segments":[],"categories_sizes":[],"default_left":[0,0,0,0,0,0,0,0,0,0,0,0,0,0,0,0,0,0,0,0,0,0,0,0,0,0,0,0,0,0,0,0,0,0,0,0,0,0,0,0,0,0,0,0,0,0,0,0,0,0,0,0,0,0,0,0,0,0,0,0,0,0,0,0,0,0,0,0,0,0,0,0,0,0,0,0,0,0,0,0,0,0,0,0,0],"id":19,"left_children":[1,3,5,7,9,11,13,15,17,19,21,23,25,27,29,-1,31,33,35,37,39,41,43,-1,-1,45,47,49,51,53,-1,-1,-1,55,57,59,-1,61,-1,63,65,67,69,-1,-1,71,73,75,-1,77,-1,-1,79,81,83,-1,-1,-1,-1,-1,-1,-1,-1,-1,-1,-1,-1,-1,-1,-1,-1,-1,-1,-1,-1,-1,-1,-1,-1,-1,-1,-1,-1,-1,-1],"loss_changes":[2.1779E4,3.51025E3,4.9855E3,2.16875E2,1.8545E3,1.252125E3,1.0011875E3,4.4041016E1,2.5225E2,3.04125E2,2.15375E2,9.534375E1,4.625E2,4.926875E2,2.9446875E2,0E0,1.2609375E1,1.44375E2,5.64375E1,2.0875E1,2.854375E2,2.37125E2,7.803125E1,0E0,0E0,5.0875E1,9.50625E1,1.1984375E1,2.0178125E2,9.6375E1,0E0,0E0,0E0,1.6101562E1,6.98125E1,1.4375E1,0E0,1.06015625E1,0E0,2.9472656E1,9.0375E1,7.421875E1,8.78125E1,0E0,0E0,6.8875E1,1.2244922E2,8.95625E1,0E0,1.93125E1,0E0,0E0,1.83375E2,1.0978125E2,9.958594E1,0E0,0E0,0E0,0E0,0E0,0E0,0E0,0E0,0E0,0E0,0E0,0E0,0E0,0E0,0E0,0E0,0E0,0E0,0E0,0E0,0E0,0E0,0E0,0E0,0E0,0E0,0E0,0E0,0E0,0E0],"parents":[2147483647,0,0,1,1,2,2,3,3,4,4,5,5,6,6,7,7,8,8,9,9,10,10,11,11,12,12,13,13,14,14,16,16,17,17,18,18,19,19,20,20,21,21,22,22,25,25,26,26,27,27,28,28,29,29,33,33,34,34,35,35,37,37,39,39,40,40,41,41,42,42,45,45,46,46,47,47,49,49,52,52,53,53,54,54],"right_children":[2,4,6,8,10,12,14,16,18,20,22,24,26,28,30,-1,32,34,36,38,40,42,44,-1,-1,46,48,50,52,54,-1,-1,-1,56,58,60,-1,62,-1,64,66,68,70,-1,-1,72,74,76,-1,78,-1,-1,80,82,84,-1,-1,-1,-1,-1,-1,-1,-1,-1,-1,-1,-1,-1,-1,-1,-1,-1,-1,-1,-1,-1,-1,-1,-1,-1,-1,-1,-1,-1,-1],"split_conditions":[1.92E1,1.38E1,2.21E1,1.29106E1,1.71E1,1.36694E1,2.45E1,1.67E1,1.69E1,1.3992E1,1.42716E1,2.09E1,2.05E1,1.38E1,2.85E1,7.388862E-1,1.81E1,1.26E1,1.86E1,1.61E1,1.57E1,1.76E1,1.58296E1,7.701218E-1,8.066373E-1,1.45716E1,1.5933E1,1.34702E1,1.38082E1,1.38082E1,1.0694914E0,6.174452E-1,6.870121E-1,1.2E1,1.58E1,1.36096E1,7.5732917E-1,1.02E1,7.3895085E-1,1.58296E1,1.57304E1,1.3992E1,1.38082E1,8.0751956E-1,7.391437E-1,1.38082E1,1.56074E1,1.5068E1,6.3171744E-1,2.44E1,8.5882294E-1,9.3614334E-1,1.45052E1,1.38E1,1.45918E1,4.0619847E-1,6.4676665E-2,6.7546624E-1,7.200009E-1,7.3084056E-1,7.4612856E-1,4.6870443E-1,7.184383E-1,6.558973E-1,3.8311744E-1,7.791188E-1,7.157693E-1,7.5366694E-1,7.934348E-1,7.9977685E-1,7.7878976E-1,8.3355397E-1,8.0954343E-1,8.8333845E-1,7.61018E-1,8.5509557E-1,9.2365307E-1,8.1626666E-1,4.0106925E-1,8.770179E-1,9.362182E-1,8.269933E-1,1.0022651E0,8.8973427E-1,9.7714484E-1],"split_indices":[1,2,1,2,1,2,1,1,1,2,2,1,1,2,1,0,1,1,1,1,1,1,2,0,0,2,2,2,2,2,0,0,0,1,1,2,0,1,0,2,2,2,2,0,0,2,2,2,0,1,0,0,2,2,2,0,0,0,0,0,0,0,0,0,0,0,0,0,0,0,0,0,0,0,0,0,0,0,0,0,0,0,0,0,0],"split_type":[0,0,0,0,0,0,0,0,0,0,0,0,0,0,0,0,0,0,0,0,0,0,0,0,0,0,0,0,0,0,0,0,0,0,0,0,0,0,0,0,0,0,0,0,0,0,0,0,0,0,0,0,0,0,0,0,0,0,0,0,0,0,0,0,0,0,0,0,0,0,0,0,0,0,0,0,0,0,0,0,0,0,0,0,0],"sum_hessian":[1.07153E5,7.2721E4,3.4432E4,3.0328E4,4.2393E4,2.4063E4,1.0369E4,6.07E2,2.9721E4,1.5428E4,2.6965E4,5.329E3,1.8734E4,8.17E3,2.199E3,1.17E2,4.9E2,1.166E4,1.8061E4,1.0607E4,4.821E3,1.8876E4,8.089E3,3.585E3,1.744E3,1.0388E4,8.346E3,1.887E3,6.283E3,1.858E3,3.41E2,3.21E2,1.69E2,1.5E1,1.1645E4,1.5537E4,2.524E3,2.018E3,8.589E3,2.23E2,4.598E3,5.091E3,1.3785E4,7.772E3,3.17E2,9.57E3,8.18E2,8.314E3,3.2E1,6.27E2,1.26E3,2.192E3,4.091E3,8.37E2,1.021E3,1.3E1,2E0,6.47E2,1.0998E4,1.1633E4,3.904E3,9E0,2.009E3,2.14E2,9E0,4.188E3,4.1E2,4.037E3,1.054E3,7.575E3,6.21E3,4.239E3,5.331E3,6.55E2,1.63E2,7.952E3,3.62E2,6.23E2,4E0,3.103E3,9.88E2,7.3E1,7.64E2,6.29E2,3.92E2],"tree_param":{"num_deleted":"0","num_feature":"3","num_nodes":"85","size_leaf_vector":"0"}},{"base_weights":[7.070882E0,6.7095366E0,7.279312E0,6.643033E0,6.8821483E0,6.499387E-1,7.3051763E0,6.7702144E-1,6.596538E0,6.9906693E0,6.5548587E-1,7.2505364E0,7.6101108E0,5.9964404E0,6.6293283E0,6.693366E-1,7.0187545E-1,7.3373528E0,7.1763086E0,7.338802E0,7.695488E0,6.733292E0,5.5893636E0,6.529521E-1,6.715471E0,6.9981855E-1,7.3981106E-1,6.808694E0,7.2723927E0,7.451706E0,5.8516926E-1,7.6124434E0,7.837572E0,6.3198787E-1,8.151415E-1,4.414074E-1,5.9162354E-1,6.768899E-1,6.607502E-1,6.870634E-1,6.445131E-1,7.1331763E-1,7.3417276E-1,7.391476E-1,7.9483473E-1,7.7808493E-1,7.53364E-1,7.916993E-1,7.432224E-1],"categories":[],"categories_nodes":[],"categories_segments":[],"categories_sizes":[],"default_left":[0,0,0,0,0,0,0,0,0,0,0,0,0,0,0,0,0,0,0,0,0,0,0,0,0,0,0,0,0,0,0,0,0,0,0,0,0,0,0,0,0,0,0,0,0,0,0,0,0],"id":20,"left_children":[1,3,5,7,9,-1,11,-1,13,15,-1,17,19,21,23,-1,-1,25,27,29,31,33,35,-1,37,-1,-1,39,41,43,-1,45,47,-1,-1,-1,-1,-1,-1,-1,-1,-1,-1,-1,-1,-1,-1,-1,-1],"loss_changes":[8.04E3,4.05375E2,1.32625E3,1.2325E2,3.414375E2,0E0,1.043E3,0E0,3.701875E2,2.128125E1,0E0,3.0775E2,1.75E2,2.893164E2,1.259375E2,0E0,0E0,4.7825E2,1.016875E3,3.6170312E2,2.978125E1,1.7302734E2,2.45875E2,0E0,1.621875E1,0E0,0E0,9.69375E1,1.785E2,8.2578125E0,0E0,5.34375E0,3.0109375E1,0E0,0E0,0E0,0E0,0E0,0E0,0E0,0E0,0E0,0E0,0E0,0E0,0E0,0E0,0E0,0E0],"parents":[2147483647,0,0,1,1,2,2,3,3,4,4,6,6,8,8,9,9,11,11,12,12,13,13,14,14,17,17,18,18,19,19,20,20,21,21,22,22,24,24,27,27,28,28,29,29,31,31,32,32],"right_children":[2,4,6,8,10,-1,12,-1,14,16,-1,18,20,22,24,-1,-1,26,28,30,32,34,36,-1,38,-1,-1,40,42,44,-1,46,48,-1,-1,-1,-1,-1,-1,-1,-1,-1,-1,-1,-1,-1,-1,-1,-1],"split_conditions":[1.38E1,1.36096E1,5.052E3,5.052E3,5.091E3,6.499387E-1,1.44518E1,6.7702144E-1,1.30684E1,5.09E3,6.5548587E-1,1.38082E1,5.09E3,1.28052E1,1.3428E1,6.693366E-1,7.0187545E-1,5.09E3,1.39302E1,1.57304E1,1.5068E1,5.091E3,1.29106E1,6.529521E-1,5.091E3,6.9981855E-1,7.3981106E-1,5.091E3,1.40656E1,1.51692E1,5.8516926E-1,5.091E3,1.58296E1,6.3198787E-1,8.151415E-1,4.414074E-1,5.9162354E-1,6.768899E-1,6.607502E-1,6.870634E-1,6.445131E-1,7.1331763E-1,7.3417276E-1,7.391476E-1,7.9483473E-1,7.7808493E-1,7.53364E-1,7.916993E-1,7.432224E-1],"split_indices":[2,2,0,0,0,0,2,0,2,0,0,2,0,2,2,0,0,0,2,2,2,0,2,0,0,0,0,0,2,2,0,0,2,0,0,0,0,0,0,0,0,0,0,0,0,0,0,0,0],"split_type":[0,0,0,0,0,0,0,0,0,0,0,0,0,0,0,0,0,0,0,0,0,0,0,0,0,0,0,0,0,0,0,0,0,0,0,0,0,0,0,0,0,0,0,0,0,0,0,0,0],"sum_hessian":[1.07402E5,3.9301E4,6.8101E4,2.8399E4,1.0902E4,2.194E3,6.5907E4,7.564E3,2.0835E4,8.172E3,2.73E3,5.5913E4,9.994E3,1.089E3,1.9746E4,7.26E2,7.446E3,2.5726E4,3.0187E4,2.413E3,7.581E3,3.82E2,7.07E2,9.183E3,1.0563E4,3.926E3,2.18E4,6.27E3,2.3917E4,2.239E3,1.74E2,4.819E3,2.762E3,3E2,8.2E1,1.57E2,5.5E2,7.025E3,3.538E3,5.342E3,9.28E2,7.986E3,1.5931E4,2.011E3,2.28E2,1.505E3,3.314E3,2.294E3,4.68E2],"tree_param":{"num_deleted":"0","num_feature":"3","num_nodes":"49","size_leaf_vector":"0"}},{"base_weights":[6.3665485E0,6.1519713E0,7.114963E0,5.998041E0,6.430866E0,6.970263E0,7.8411555E0,5.913811E0,6.326136E0,6.07578E0,6.5416303E0,6.5550995E0,7.0776815E0,7.703011E0,8.6478597E-1,5.8094487E0,5.9891105E0,4.6509385E0,6.3467183E0,5.991813E0,6.224397E-1,6.47782E0,6.670972E0,6.3128705E0,6.689369E-1,6.9404974E0,7.286998E0,6.924949E-1,7.759967E0,5.1344404E0,5.819833E0,5.863714E0,6.0983343E0,3.9848557E0,5.3700695E0,6.0981554E-1,6.3942432E0,5.408293E0,6.011321E-1,6.4511094E0,6.6506467E0,6.64511E0,6.9960775E0,5.442222E-1,6.352711E-1,6.948451E0,5.177025E-1,7.4750714E0,7.150507E0,8.079175E0,7.561956E0,2.420681E-1,5.278372E-1,6.7070585E-1,5.8095706E-1,4.9830475E-1,5.886824E-1,6.023574E-1,6.217601E-1,1.0622513E-1,4.1345483E-1,5.464463E-1,1.6607094E-1,6.4196944E-1,6.0733885E-1,6.326654E-1,5.029159E-1,6.365728E-1,6.5049404E-1,6.5284127E-1,6.848922E-1,6.7688376E-1,6.5480024E-1,7.126575E-1,6.230578E-1,6.9152963E-1,7.211329E-1,7.090905E-1,7.600805E-1,7.1319586E-1,8.476753E-1,7.725625E-1,8.4603995E-1,7.3967856E-1,8.113977E-1],"categories":[],"categories_nodes":[],"categories_segments":[],"categories_sizes":[],"default_left":[0,0,0,0,0,0,0,0,0,0,0,0,0,0,0,0,0,0,0,0,0,0,0,0,0,0,0,0,0,0,0,0,0,0,0,0,0,0,0,0,0,0,0,0,0,0,0,0,0,0,0,0,0,0,0,0,0,0,0,0,0,0,0,0,0,0,0,0,0,0,0,0,0,0,0,0,0,0,0,0,0,0,0,0,0],"id":21,"left_children":[1,3,5,7,9,11,13,15,17,19,21,23,25,27,-1,29,31,33,35,37,-1,39,41,43,-1,45,47,-1,49,51,53,55,57,59,61,-1,63,65,-1,67,69,71,73,-1,-1,75,-1,77,79,81,83,-1,-1,-1,-1,-1,-1,-1,-1,-1,-1,-1,-1,-1,-1,-1,-1,-1,-1,-1,-1,-1,-1,-1,-1,-1,-1,-1,-1,-1,-1,-1,-1,-1,-1],"loss_changes":[1.72075E4,3.546E3,2.46E3,1.44975E3,1.127625E3,8.43875E2,3.7557812E2,3.0175E2,3.4903125E2,5.0953125E1,1.434375E2,9.1671875E1,4.045E2,9.6796875E1,0E0,9.61875E1,3.04625E2,4.422461E1,8.909375E1,1.921875E1,0E0,2.71875E1,1.603125E1,1.6972656E1,0E0,9.8625E1,1.0709375E2,0E0,1.3845312E2,9.697998E1,1.223125E2,2.06625E2,8.078125E1,2.84198E1,1.2983887E1,0E0,3.51875E1,2.284668E1,0E0,1.91875E1,3.7421875E0,3.865625E1,8.443359E0,0E0,0E0,3.33125E1,0E0,7.20625E1,2.9265625E1,9.5578125E1,1.19046875E2,0E0,0E0,0E0,0E0,0E0,0E0,0E0,0E0,0E0,0E0,0E0,0E0,0E0,0E0,0E0,0E0,0E0,0E0,0E0,0E0,0E0,0E0,0E0,0E0,0E0,0E0,0E0,0E0,0E0,0E0,0E0,0E0,0E0,0E0],"parents":[2147483647,0,0,1,1,2,2,3,3,4,4,5,5,6,6,7,7,8,8,9,9,10,10,11,11,12,12,13,13,15,15,16,16,17,17,18,18,19,19,21,21,22,22,23,23,25,25,26,26,28,28,29,29,30,30,31,31,32,32,33,33,34,34,36,36,37,37,39,39,40,40,41,41,42,42,45,45,47,47,48,48,49,49,50,50],"right_children":[2,4,6,8,10,12,14,16,18,20,22,24,26,28,-1,30,32,34,36,38,-1,40,42,44,-1,46,48,-1,50,52,54,56,58,60,62,-1,64,66,-1,68,70,72,74,-1,-1,76,-1,78,80,82,84,-1,-1,-1,-1,-1,-1,-1,-1,-1,-1,-1,-1,-1,-1,-1,-1,-1,-1,-1,-1,-1,-1,-1,-1,-1,-1,-1,-1,-1,-1,-1,-1,-1,-1],"split_conditions":[2.02E1,1.81E1,2.37E1,1.3992E1,1.36694E1,1.36682E1,2.63E1,1.68E1,1.54E1,1.91E1,1.93E1,2.1E1,2.19E1,1.37282E1,8.6478597E-1,1.28E1,1.36532E1,1.5068E1,1.65E1,1.29106E1,6.224397E-1,1.45122E1,1.46116E1,1.295E1,6.689369E-1,1.5933E1,1.38082E1,6.924949E-1,1.38082E1,1.35894E1,1.5E1,1.29106E1,1.75E1,1.16E1,1.53E1,6.0981554E-1,1.56074E1,1.83E1,6.011321E-1,1.85E1,1.87E1,1.38082E1,1.57304E1,5.442222E-1,6.352711E-1,1.45122E1,5.177025E-1,1.38E1,1.57304E1,2.46E1,1.47706E1,2.420681E-1,5.278372E-1,6.7070585E-1,5.8095706E-1,4.9830475E-1,5.886824E-1,6.023574E-1,6.217601E-1,1.0622513E-1,4.1345483E-1,5.464463E-1,1.6607094E-1,6.4196944E-1,6.0733885E-1,6.326654E-1,5.029159E-1,6.365728E-1,6.5049404E-1,6.5284127E-1,6.848922E-1,6.7688376E-1,6.5480024E-1,7.126575E-1,6.230578E-1,6.9152963E-1,7.211329E-1,7.090905E-1,7.600805E-1,7.1319586E-1,8.476753E-1,7.725625E-1,8.4603995E-1,7.3967856E-1,8.113977E-1],"split_indices":[1,1,1,2,2,2,1,1,1,1,1,1,1,2,0,1,2,2,1,2,0,2,2,2,0,2,2,0,2,2,1,2,1,1,1,0,2,1,0,1,1,2,2,0,0,2,0,2,2,1,2,0,0,0,0,0,0,0,0,0,0,0,0,0,0,0,0,0,0,0,0,0,0,0,0,0,0,0,0,0,0,0,0,0,0],"split_type":[0,0,0,0,0,0,0,0,0,0,0,0,0,0,0,0,0,0,0,0,0,0,0,0,0,0,0,0,0,0,0,0,0,0,0,0,0,0,0,0,0,0,0,0,0,0,0,0,0,0,0,0,0,0,0,0,0,0,0,0,0,0,0,0,0,0,0,0,0,0,0,0,0,0,0,0,0,0,0,0,0,0,0,0,0],"sum_hessian":[1.07422E5,8.3493E4,2.3929E4,5.3814E4,2.9679E4,1.9962E4,3.967E3,4.2836E4,1.0978E4,7.07E3,2.2609E4,4.116E3,1.5846E4,3.396E3,5.71E2,1.7986E4,2.485E4,1.36E2,1.0842E4,4.544E3,2.526E3,1.5174E4,7.435E3,1.485E3,2.631E3,9.593E3,6.253E3,2.4E2,3.156E3,2.8E2,1.7706E4,1.1594E4,1.3256E4,7.4E1,6.2E1,1.761E3,9.081E3,1.56E2,4.388E3,1.3176E4,1.998E3,6.907E3,5.28E2,7.1E1,1.414E3,9.547E3,4.6E1,2.607E3,3.646E3,1.193E3,1.963E3,1.5E1,2.65E2,1.95E2,1.7511E4,3.02E2,1.1292E4,8.18E3,5.076E3,4E0,7E1,6E1,2E0,8.396E3,6.85E2,4.1E1,1.15E2,5.141E3,8.035E3,1.257E3,7.41E2,3.007E3,3.9E3,4.44E2,8.4E1,8.502E3,1.045E3,6.57E2,1.95E3,3.602E3,4.4E1,6.3E2,5.63E2,1.522E3,4.41E2],"tree_param":{"num_deleted":"0","num_feature":"3","num_nodes":"85","size_leaf_vector":"0"}},{"base_weights":[5.7261696E0,5.526301E0,6.397345E0,5.3889995E0,5.7559423E0,6.2197046E0,6.87975E0,5.208577E0,5.4493194E0,5.6556516E0,5.857099E0,6.07952E0,6.3742023E0,6.735272E0,7.409335E0,5.0029683E0,5.260047E0,5.3717113E0,5.4946613E-1,5.6078424E0,5.747037E-1,5.72779E-1,5.8930415E-1,5.934917E-1,6.1076325E-1,6.118366E-1,6.4168386E0,6.8674736E0,6.541957E-1,7.203232E0,8.0181736E-1,4.6811476E0,5.0546393E0,5.3060555E0,4.992337E-1,5.4151034E0,5.186708E-1,5.453575E-1,5.631372E-1,6.5326613E-1,6.27371E-1,6.394418E-1,6.9535055E0,6.5426743E-1,7.2735256E-1,3.3271614E-1,4.7204718E-1,5.6278986E-1,4.9905244E-1,5.0620526E-1,5.3573185E-1,5.274935E-1,5.4676735E-1,6.8655014E-1,7.200556E-1],"categories":[],"categories_nodes":[],"categories_segments":[],"categories_sizes":[],"default_left":[0,0,0,0,0,0,0,0,0,0,0,0,0,0,0,0,0,0,0,0,0,0,0,0,0,0,0,0,0,0,0,0,0,0,0,0,0,0,0,0,0,0,0,0,0,0,0,0,0,0,0,0,0,0,0],"id":22,"left_children":[1,3,5,7,9,11,13,15,17,19,21,23,25,27,29,31,33,35,-1,37,-1,-1,-1,-1,-1,-1,39,41,-1,43,-1,45,47,49,-1,51,-1,-1,-1,-1,-1,-1,53,-1,-1,-1,-1,-1,-1,-1,-1,-1,-1,-1,-1],"loss_changes":[1.43495E4,2.57425E3,2.06525E3,5.34625E2,2.804375E2,3.508125E2,4.5590625E2,1.110625E2,1.06875E2,3.56875E1,3.7625E1,2.15625E0,5.384375E1,8.809375E1,1.1880469E2,1.990625E1,1.011875E2,8.7E1,0E0,6.5E0,0E0,0E0,0E0,0E0,0E0,0E0,8E1,8.053125E1,0E0,1.6757812E0,0E0,4.314453E0,5.442578E1,8.33125E1,0E0,5.653125E1,0E0,0E0,0E0,0E0,0E0,0E0,6.7890625E0,0E0,0E0,0E0,0E0,0E0,0E0,0E0,0E0,0E0,0E0,0E0,0E0],"parents":[2147483647,0,0,1,1,2,2,3,3,4,4,5,5,6,6,7,7,8,8,9,9,10,10,11,11,12,12,13,13,14,14,15,15,16,16,17,17,19,19,26,26,27,27,29,29,31,31,32,32,33,33,35,35,42,42],"right_children":[2,4,6,8,10,12,14,16,18,20,22,24,26,28,30,32,34,36,-1,38,-1,-1,-1,-1,-1,-1,40,42,-1,44,-1,46,48,50,-1,52,-1,-1,-1,-1,-1,-1,54,-1,-1,-1,-1,-1,-1,-1,-1,-1,-1,-1,-1],"split_conditions":[2.01E1,1.8E1,2.29E1,1.65E1,1.88E1,2.13E1,2.51E1,1.59E1,1.7E1,5.091E3,5.09E3,5.09E3,5.09E3,5.091E3,2.85E1,1.29E1,5.091E3,5.091E3,5.4946613E-1,1.81E1,5.747037E-1,5.72779E-1,5.8930415E-1,5.934917E-1,6.1076325E-1,6.118366E-1,5.091E3,5.09E3,6.541957E-1,5.09E3,8.0181736E-1,1.03E1,1.5E1,5.052E3,4.992337E-1,5.09E3,5.186708E-1,5.453575E-1,5.631372E-1,6.5326613E-1,6.27371E-1,6.394418E-1,2.42E1,6.5426743E-1,7.2735256E-1,3.3271614E-1,4.7204718E-1,5.6278986E-1,4.9905244E-1,5.0620526E-1,5.3573185E-1,5.274935E-1,5.4676735E-1,6.8655014E-1,7.200556E-1],"split_indices":[1,1,1,1,1,1,1,1,1,0,0,0,0,0,1,1,0,0,0,1,0,0,0,0,0,0,0,0,0,0,0,1,1,0,0,0,0,0,0,0,0,0,1,0,0,0,0,0,0,0,0,0,0,0,0],"split_type":[0,0,0,0,0,0,0,0,0,0,0,0,0,0,0,0,0,0,0,0,0,0,0,0,0,0,0,0,0,0,0,0,0,0,0,0,0,0,0,0,0,0,0,0,0,0,0,0,0,0,0,0,0,0,0],"sum_hessian":[1.07231E5,8.2633E4,2.4598E4,5.1729E4,3.0904E4,1.7988E4,6.61E3,1.2983E4,3.8746E4,1.5547E4,1.5357E4,9.452E3,8.536E3,5.204E3,1.406E3,2.619E3,1.0364E4,1.4333E4,2.4413E4,1.0248E4,5.299E3,3.375E3,1.1982E4,1.573E3,7.879E3,1.24E3,7.296E3,3.07E3,2.134E3,1.06E3,3.46E2,3.75E2,2.244E3,8.828E3,1.536E3,1.1587E4,2.746E3,1.387E3,8.861E3,4.008E3,3.288E3,4.84E2,2.586E3,1.11E2,9.49E2,1.3E1,3.62E2,2.17E2,2.027E3,1.55E3,7.278E3,3.188E3,8.399E3,1.928E3,6.58E2],"tree_param":{"num_deleted":"0","num_feature":"3","num_nodes":"55","size_leaf_vector":"0"}},{"base_weights":[5.151154E0,4.9832716E0,5.7692723E0,4.8520956E0,5.1912265E0,5.637064E0,6.3032126E0,4.673201E0,4.8981953E0,5.0952168E0,5.2762227E0,5.5446177E0,5.8627605E0,6.1466246E0,6.640739E0,4.1685214E0,4.6909475E0,4.846553E0,4.959514E-1,5.057589E0,5.1651335E-1,5.176876E-1,5.302754E-1,5.437927E-1,5.5929155E0,5.306855E-1,5.8825316E0,6.3031483E0,5.9248203E-1,6.489532E0,7.1064395E-1,4.228904E-1,2.7527738E-1,4.500912E0,4.7365923E0,4.8880935E0,4.6763173E-1,5.009632E-1,5.111692E-1,5.438954E-1,5.62103E-1,5.976884E-1,5.7428813E-1,3.7757602E-1,6.3122735E0,5.89658E-1,6.5522057E-1,6.0863685E-2,4.5103294E-1,5.532996E-1,4.7198626E-1,4.773046E-1,4.932812E-1,5.9430665E-1,6.3698417E-1],"categories":[],"categories_nodes":[],"categories_segments":[],"categories_sizes":[],"default_left":[0,0,0,0,0,0,0,0,0,0,0,0,0,0,0,0,0,0,0,0,0,0,0,0,0,0,0,0,0,0,0,0,0,0,0,0,0,0,0,0,0,0,0,0,0,0,0,0,0,0,0,0,0,0,0],"id":23,"left_children":[1,3,5,7,9,11,13,15,17,19,21,23,25,27,29,31,33,35,-1,37,-1,-1,-1,-1,39,-1,41,43,-1,45,-1,-1,-1,47,49,51,-1,-1,-1,-1,-1,-1,-1,-1,53,-1,-1,-1,-1,-1,-1,-1,-1,-1,-1],"loss_changes":[1.11065E4,2.277125E3,1.5819375E3,4.04E2,2.393125E2,3.50875E2,1.9909375E2,7.5625E1,1.06125E2,1.428125E1,1.8125E1,3.684375E1,2.7265625E1,7.0765625E1,5.429297E1,1.998877E1,6.765625E1,1.35375E2,0E0,4.21875E-1,0E0,0E0,0E0,0E0,8.15625E0,0E0,3.328125E1,1.790625E1,0E0,1.8007812E0,0E0,0E0,0E0,7.081641E1,8.384375E1,6.8875E1,0E0,0E0,0E0,0E0,0E0,0E0,0E0,0E0,4.453125E-1,0E0,0E0,0E0,0E0,0E0,0E0,0E0,0E0,0E0,0E0],"parents":[2147483647,0,0,1,1,2,2,3,3,4,4,5,5,6,6,7,7,8,8,9,9,10,10,11,11,12,12,13,13,14,14,15,15,16,16,17,17,19,19,24,24,26,26,27,27,29,29,33,33,34,34,35,35,44,44],"right_children":[2,4,6,8,10,12,14,16,18,20,22,24,26,28,30,32,34,36,-1,38,-1,-1,-1,-1,40,-1,42,44,-1,46,-1,-1,-1,48,50,52,-1,-1,-1,-1,-1,-1,-1,-1,54,-1,-1,-1,-1,-1,-1,-1,-1,-1,-1],"split_conditions":[2.03E1,1.8E1,2.35E1,1.64E1,1.88E1,2.22E1,2.51E1,1.29E1,1.72E1,5.091E3,5.09E3,2.08E1,5.052E3,5.091E3,2.87E1,1.28E1,5.09E3,5.091E3,4.959514E-1,1.84E1,5.1651335E-1,5.176876E-1,5.302754E-1,5.437927E-1,5.09E3,5.306855E-1,5.091E3,5.052E3,5.9248203E-1,5.09E3,7.1064395E-1,4.228904E-1,2.7527738E-1,1.31E1,1.49E1,5.09E3,4.6763173E-1,5.009632E-1,5.111692E-1,5.438954E-1,5.62103E-1,5.976884E-1,5.7428813E-1,3.7757602E-1,5.09E3,5.89658E-1,6.5522057E-1,6.0863685E-2,4.5103294E-1,5.532996E-1,4.7198626E-1,4.773046E-1,4.932812E-1,5.9430665E-1,6.3698417E-1],"split_indices":[1,1,1,1,1,1,1,1,1,0,0,1,0,0,1,1,0,0,0,1,0,0,0,0,0,0,0,0,0,0,0,0,0,1,1,0,0,0,0,0,0,0,0,0,0,0,0,0,0,0,0,0,0,0,0],"split_type":[0,0,0,0,0,0,0,0,0,0,0,0,0,0,0,0,0,0,0,0,0,0,0,0,0,0,0,0,0,0,0,0,0,0,0,0,0,0,0,0,0,0,0,0,0,0,0,0,0,0,0,0,0,0,0],"sum_hessian":[1.07304E5,8.4392E4,2.2912E4,5.1764E4,3.2628E4,1.8374E4,4.538E3,1.0627E4,4.1137E4,1.535E4,1.7278E4,1.3053E4,5.321E3,3.113E3,1.425E3,3.69E2,1.0258E4,2.2374E4,1.8763E4,1.0027E4,5.323E3,3.683E3,1.3595E4,4.103E3,8.95E3,1.92E2,5.129E3,1.809E3,1.304E3,1.087E3,3.38E2,3.52E2,1.7E1,2.006E3,8.252E3,1.7963E4,4.411E3,5.365E3,4.662E3,1.412E3,7.538E3,3.036E3,2.093E3,8E0,1.801E3,1.13E2,9.74E2,5E0,2.001E3,1.63E2,8.089E3,5.058E3,1.2905E4,2.57E2,1.544E3],"tree_param":{"num_deleted":"0","num_feature":"3","num_nodes":"55","size_leaf_vector":"0"}},{"base_weights":[4.6397305E0,4.4810805E0,5.1948504E0,4.2883053E0,4.6085258E0,5.0929236E0,5.7141867E0,4.246173E0,4.4732404E0,4.3649225E0,4.7167263E0,4.757075E0,5.1830807E0,5.6399074E0,6.421897E-1,3.798034E0,4.2575917E0,4.0485808E-1,4.490836E0,4.271989E0,4.507691E0,4.630755E0,4.8093E0,4.6229097E-1,4.8729473E-1,5.0598845E0,5.3167562E0,5.04939E0,5.7009764E0,1.744484E0,3.8478324E0,3.9838777E0,4.2715917E0,4.4399786E0,4.592282E-1,1.618739E0,4.2746434E0,2.8338745E0,4.531214E0,4.5378737E0,4.735489E0,4.7880206E0,5.015696E0,5.1688647E0,4.984231E0,5.487789E0,5.194714E0,6.5217E-1,4.96164E0,5.9476075E0,5.5402417E0,1.8928872E-1,3.7150573E-2,3.5728028E-1,3.9363596E-1,3.9169976E-1,4.234151E-1,4.221668E-1,4.3078715E-1,4.3446708E-1,4.509967E-1,4.5437226E-1,4.638846E-2,4.311339E-1,4.1353178E-1,2.977467E-1,-2.1791981E-1,4.393836E-1,4.6217307E-1,4.5986715E-1,4.3337274E-1,4.7549447E-1,4.0711355E-1,4.8937678E-1,4.719956E-1,4.7527286E-1,5.145872E-1,4.8226675E-1,5.2467716E-1,4.870103E-1,5.153564E-1,5.1455647E-1,5.5887073E-1,4.9209997E-1,5.2906966E-1,-2.1269735E-2,4.994237E-1,5.670025E-1,6.1708844E-1,5.3535706E-1,6.0558933E-1],"categories":[],"categories_nodes":[],"categories_segments":[],"categories_sizes":[],"default_left":[0,0,0,0,0,0,0,0,0,0,0,0,0,0,0,0,0,0,0,0,0,0,0,0,0,0,0,0,0,0,0,0,0,0,0,0,0,0,0,0,0,0,0,0,0,0,0,0,0,0,0,0,0,0,0,0,0,0,0,0,0,0,0,0,0,0,0,0,0,0,0,0,0,0,0,0,0,0,0,0,0,0,0,0,0,0,0,0,0,0,0],"id":24,"left_children":[1,3,5,7,9,11,13,15,17,19,21,23,25,27,-1,29,31,-1,33,35,37,39,41,-1,-1,43,45,47,49,51,53,55,57,59,-1,61,63,65,67,69,71,73,75,77,79,81,83,-1,85,87,89,-1,-1,-1,-1,-1,-1,-1,-1,-1,-1,-1,-1,-1,-1,-1,-1,-1,-1,-1,-1,-1,-1,-1,-1,-1,-1,-1,-1,-1,-1,-1,-1,-1,-1,-1,-1,-1,-1,-1,-1],"loss_changes":[9.43725E3,2.032875E3,1.2344375E3,2.401875E2,1.30475E3,5.798125E2,1.6921094E2,1.2259375E2,2.7796875E1,1.86125E2,2.5475E2,4.3335938E1,2.32125E2,9.905469E1,0E0,6.313379E1,8.425E1,0E0,1.00625E1,5.925E1,2.2675E2,1.543125E2,4.946875E1,0E0,0E0,4.1890625E1,1.2851562E2,1.1696289E1,9.410156E1,2.964363E0,2.1513672E0,5.1933594E0,2.734375E1,6.8125E0,0E0,3.504947E1,3.015625E1,6.911444E1,5.428125E1,9.925E1,9.015625E1,8.625E1,2.8363281E1,6.4640625E1,6.903906E1,7.8828125E1,8.9796875E1,0E0,5.604834E1,4.254297E1,1.5576172E2,0E0,0E0,0E0,0E0,0E0,0E0,0E0,0E0,0E0,0E0,0E0,0E0,0E0,0E0,0E0,0E0,0E0,0E0,0E0,0E0,0E0,0E0,0E0,0E0,0E0,0E0,0E0,0E0,0E0,0E0,0E0,0E0,0E0,0E0,0E0,0E0,0E0,0E0,0E0,0E0],"parents":[2147483647,0,0,1,1,2,2,3,3,4,4,5,5,6,6,7,7,8,8,9,9,10,10,11,11,12,12,13,13,15,15,16,16,18,18,19,19,20,20,21,21,22,22,25,25,26,26,27,27,28,28,29,29,30,30,31,31,32,32,33,33,35,35,36,36,37,37,38,38,39,39,40,40,41,41,42,42,43,43,44,44,45,45,46,46,48,48,49,49,50,50],"right_children":[2,4,6,8,10,12,14,16,18,20,22,24,26,28,-1,30,32,-1,34,36,38,40,42,-1,-1,44,46,48,50,52,54,56,58,60,-1,62,64,66,68,70,72,74,76,78,80,82,84,-1,86,88,90,-1,-1,-1,-1,-1,-1,-1,-1,-1,-1,-1,-1,-1,-1,-1,-1,-1,-1,-1,-1,-1,-1,-1,-1,-1,-1,-1,-1,-1,-1,-1,-1,-1,-1,-1,-1,-1,-1,-1,-1],"split_conditions":[2.02E1,1.38E1,2.37E1,1.85E1,1.71E1,1.36714E1,2.83E1,1.58E1,1.295E1,1.39286E1,1.84E1,2.13E1,2.16E1,1.38E1,6.421897E-1,1.22E1,1.30078E1,4.0485808E-1,1.3588E1,1.03E1,1.3E1,1.3992E1,1.45918E1,4.6229097E-1,4.8729473E-1,1.38082E1,1.38082E1,1.28052E1,1.38082E1,1.2E1,1.33288E1,1.79E1,1.3428E1,1.9E1,4.592282E-1,9.7E0,1.38082E1,1.58296E1,1.65E1,1.38082E1,1.58296E1,1.38082E1,1.88E1,1.37914E1,1.42696E1,1.38E1,1.4009E1,6.5217E-1,1.295E1,2.46E1,1.47272E1,1.8928872E-1,3.7150573E-2,3.5728028E-1,3.9363596E-1,3.9169976E-1,4.234151E-1,4.221668E-1,4.3078715E-1,4.3446708E-1,4.509967E-1,4.5437226E-1,4.638846E-2,4.311339E-1,4.1353178E-1,2.977467E-1,-2.1791981E-1,4.393836E-1,4.6217307E-1,4.5986715E-1,4.3337274E-1,4.7549447E-1,4.0711355E-1,4.8937678E-1,4.719956E-1,4.7527286E-1,5.145872E-1,4.8226675E-1,5.2467716E-1,4.870103E-1,5.153564E-1,5.1455647E-1,5.5887073E-1,4.9209997E-1,5.2906966E-1,-2.1269735E-2,4.994237E-1,5.670025E-1,6.1708844E-1,5.3535706E-1,6.0558933E-1],"split_indices":[1,2,1,1,1,2,1,1,2,2,1,1,1,2,0,1,2,0,2,1,1,2,2,0,0,2,2,2,2,1,2,1,2,1,0,1,2,2,1,2,2,2,1,2,2,2,2,0,2,1,2,0,0,0,0,0,0,0,0,0,0,0,0,0,0,0,0,0,0,0,0,0,0,0,0,0,0,0,0,0,0,0,0,0,0,0,0,0,0,0,0],"split_type":[0,0,0,0,0,0,0,0,0,0,0,0,0,0,0,0,0,0,0,0,0,0,0,0,0,0,0,0,0,0,0,0,0,0,0,0,0,0,0,0,0,0,0,0,0,0,0,0,0,0,0,0,0,0,0,0,0,0,0,0,0,0,0,0,0,0,0,0,0,0,0,0,0,0,0,0,0,0,0,0,0,0,0,0,0,0,0,0,0,0,0],"sum_hessian":[1.07419E5,8.355E4,2.3869E4,3.3266E4,5.0284E4,1.9962E4,3.907E3,2.7113E4,6.153E3,1.5478E4,3.4806E4,4.236E3,1.5726E4,3.544E3,3.63E2,6.82E2,2.6431E4,2.54E2,5.899E3,9.394E3,6.084E3,1.8073E4,1.6733E4,1.982E3,2.254E3,8.204E3,7.522E3,3.4E2,3.204E3,1.7E1,6.65E2,1.3E3,2.5131E4,3.959E3,1.94E3,1E1,9.384E3,8.6E1,5.998E3,9.602E3,8.471E3,1.5191E4,1.542E3,3.334E3,4.87E3,3.114E3,4.408E3,1.5E1,3.25E2,1.25E3,1.954E3,1.5E1,2E0,1.72E2,4.93E2,1.039E3,2.61E2,1.0626E4,1.4505E4,1.703E3,2.256E3,2E0,8E0,7.404E3,1.98E3,8.4E1,2E0,2.402E3,3.596E3,7.382E3,2.22E3,8.224E3,2.47E2,5.921E3,9.27E3,5.23E2,1.019E3,6.24E2,2.71E3,2.927E3,1.943E3,7.21E2,2.393E3,1.158E3,3.25E3,2E0,3.23E2,5.69E2,6.81E2,1.443E3,5.11E2],"tree_param":{"num_deleted":"0","num_feature":"3","num_nodes":"91","size_leaf_vector":"0"}},{"base_weights":[4.1760354E0,4.03678E0,4.6845474E0,3.937621E0,4.211597E0,4.540537E0,4.980727E0,3.6823614E0,3.9631526E0,4.1449695E0,4.288122E0,4.454059E0,4.624166E0,4.938554E0,5.767279E0,3.154793E0,3.7279444E0,3.8929904E0,4.008559E0,4.1137415E-1,4.1948495E0,4.2134547E-1,4.3065572E-1,4.207519E-1,4.4676495E-1,4.3200642E-1,4.6422653E0,4.814158E0,5.0762315E0,5.589349E-1,6.3148564E-1,2.9827912E0,3.5506346E0,4.49445E0,3.7022018E0,3.9317448E0,3.7066078E0,3.9804485E0,4.0424457E0,4.155645E-1,4.268795E-1,4.695191E0,4.5643282E-1,4.9091654E0,4.6628734E-1,1.1924276E0,5.079325E0,3.6007306E-1,2.5980476E-1,2.0813683E-1,4.1165423E-1,1.846294E-1,4.618086E-1,3.436712E-1,3.756213E-1,3.796774E-1,3.9821228E-1,3.6623278E-1,3.899825E-1,4.002857E-1,3.9076507E-1,3.9937243E-1,4.13577E-1,4.6329185E-1,4.798553E-1,4.6048528E-1,4.965318E-1,3.585523E-2,1.8470268E-1,5.1691926E-1,4.9588376E-1],"categories":[],"categories_nodes":[],"categories_segments":[],"categories_sizes":[],"default_left":[0,0,0,0,0,0,0,0,0,0,0,0,0,0,0,0,0,0,0,0,0,0,0,0,0,0,0,0,0,0,0,0,0,0,0,0,0,0,0,0,0,0,0,0,0,0,0,0,0,0,0,0,0,0,0,0,0,0,0,0,0,0,0,0,0,0,0,0,0,0,0],"id":25,"left_children":[1,3,5,7,9,11,13,15,17,19,21,23,25,27,29,31,33,35,37,-1,39,-1,-1,-1,-1,-1,41,43,45,-1,-1,47,49,51,53,55,57,59,61,-1,-1,63,-1,65,-1,67,69,-1,-1,-1,-1,-1,-1,-1,-1,-1,-1,-1,-1,-1,-1,-1,-1,-1,-1,-1,-1,-1,-1,-1,-1],"loss_changes":[7.590125E3,1.445875E3,9.624375E2,3.363125E2,1.37875E2,9.184375E1,2.2179688E2,1.063125E2,1.403125E2,8.1875E0,1.34375E0,6.90625E0,2.33125E1,9.83125E1,1.5322266E0,1.6439209E1,7.242969E1,1.245625E2,1.21875E1,0E0,3.59375E-1,0E0,0E0,0E0,0E0,0E0,9.1875E0,3.1507812E1,3.4601562E1,0E0,0E0,5.792798E1,8.705078E1,3.7965332E1,4.980078E1,9.3171875E1,1.4230469E1,1.0921875E1,4.4375E1,0E0,0E0,5.9921875E0,0E0,1.6546875E1,0E0,1.5211606E0,1.09765625E1,0E0,0E0,0E0,0E0,0E0,0E0,0E0,0E0,0E0,0E0,0E0,0E0,0E0,0E0,0E0,0E0,0E0,0E0,0E0,0E0,0E0,0E0,0E0,0E0],"parents":[2147483647,0,0,1,1,2,2,3,3,4,4,5,5,6,6,7,7,8,8,9,9,10,10,11,11,12,12,13,13,14,14,15,15,16,16,17,17,18,18,20,20,26,26,27,27,28,28,31,31,32,32,33,33,34,34,35,35,36,36,37,37,38,38,41,41,43,43,45,45,46,46],"right_children":[2,4,6,8,10,12,14,16,18,20,22,24,26,28,30,32,34,36,38,-1,40,-1,-1,-1,-1,-1,42,44,46,-1,-1,48,50,52,54,56,58,60,62,-1,-1,64,-1,66,-1,68,70,-1,-1,-1,-1,-1,-1,-1,-1,-1,-1,-1,-1,-1,-1,-1,-1,-1,-1,-1,-1,-1,-1,-1,-1],"split_conditions":[2.03E1,1.81E1,2.27E1,1.61E1,1.9E1,2.13E1,2.82E1,1.3E1,1.69E1,1.86E1,5.09E3,5.052E3,5.052E3,2.38E1,3.04E1,5.091E3,1.43E1,5.091E3,1.75E1,4.1137415E-1,5.091E3,4.2134547E-1,4.3065572E-1,4.207519E-1,4.4676495E-1,4.3200642E-1,5.091E3,5.091E3,5.052E3,5.589349E-1,6.3148564E-1,1.19E1,1.18E1,5.052E3,5.09E3,5.09E3,1.68E1,5.091E3,5.091E3,4.155645E-1,4.268795E-1,2.21E1,4.5643282E-1,5.09E3,4.6628734E-1,2.39E1,5.091E3,3.6007306E-1,2.5980476E-1,2.0813683E-1,4.1165423E-1,1.846294E-1,4.618086E-1,3.436712E-1,3.756213E-1,3.796774E-1,3.9821228E-1,3.6623278E-1,3.899825E-1,4.002857E-1,3.9076507E-1,3.9937243E-1,4.13577E-1,4.6329185E-1,4.798553E-1,4.6048528E-1,4.965318E-1,3.585523E-2,1.8470268E-1,5.1691926E-1,4.9588376E-1],"split_indices":[1,1,1,1,1,1,1,1,1,1,0,0,0,1,1,0,1,0,1,0,0,0,0,0,0,0,0,0,0,0,0,1,1,0,0,0,1,0,0,0,0,1,0,0,0,1,0,0,0,0,0,0,0,0,0,0,0,0,0,0,0,0,0,0,0,0,0,0,0,0,0],"split_type":[0,0,0,0,0,0,0,0,0,0,0,0,0,0,0,0,0,0,0,0,0,0,0,0,0,0,0,0,0,0,0,0,0,0,0,0,0,0,0,0,0,0,0,0,0,0,0,0,0,0,0,0,0,0,0,0,0,0,0,0,0,0,0,0,0,0,0,0,0,0,0],"sum_hessian":[1.07453E5,8.436E4,2.3093E4,5.3843E4,3.0517E4,1.5549E4,7.544E3,4.909E3,4.8934E4,1.6343E4,1.4174E4,7.671E3,7.878E3,7.167E3,3.77E2,3.96E2,4.513E3,1.926E4,2.9674E4,1.0102E4,6.241E3,2.852E3,1.1322E4,4.17E2,7.254E3,4.56E2,7.422E3,3.784E3,3.383E3,2.93E2,8.4E1,2.82E2,1.14E2,1.41E2,4.372E3,1.5928E4,3.332E3,1.6284E4,1.339E4,4.116E3,2.125E3,4.385E3,3.037E3,2.305E3,1.479E3,3E0,3.38E3,1.05E2,1.77E2,3.3E1,8.1E1,7E0,1.34E2,7.5E2,3.622E3,4.35E3,1.1578E4,2.727E3,6.05E2,1.241E4,3.874E3,8.826E3,4.564E3,2.765E3,1.62E3,3.72E2,1.933E3,2E0,1E0,1.912E3,1.468E3],"tree_param":{"num_deleted":"0","num_feature":"3","num_nodes":"71","size_leaf_vector":"0"}},{"base_weights":[3.7608972E0,3.5221293E0,3.8982701E0,3.4531424E0,3.5946677E0,3.367485E0,3.915464E0,3.6248145E0,3.3575563E0,3.6815445E0,3.3718176E0,3.4134064E0,3.2424304E0,3.867617E0,4.1244025E0,3.7062597E-1,3.599961E-1,2.9693487E0,3.4052837E0,3.631477E-1,3.7457066E0,3.3765483E0,2.6401448E-1,3.3764336E-1,4.391919E-1,1.066613E0,3.2968625E-1,3.9476945E0,3.7927837E0,4.145098E0,3.3867624E0,3.6299088E0,2.7170856E0,3.3097786E-1,3.4342942E0,3.4605643E-1,3.7659352E0,3.4632453E-1,3.3377784E-1,1.9204836E0,-1.1959991E0,3.719558E-1,3.9885807E-1,3.5187638E0,3.860382E0,4.078249E0,4.3611526E0,3.1493276E-1,3.974631E-1,3.2679528E-1,4.9293372E-1,1.5097864E-1,2.96157E-1,3.5227662E-1,3.4095046E-1,3.8031933E-1,3.6592385E-1,-8.286333E-2,2.9289263E-1,-5.389862E-2,-1.4543457E-1,3.593497E-1,3.0903104E-1,3.7725338E-1,3.918298E-1,4.0192088E-1,4.1368723E-1,4.235427E-1,4.813581E-1],"categories":[],"categories_nodes":[],"categories_segments":[],"categories_sizes":[],"default_left":[0,0,0,0,0,0,0,0,0,0,0,0,0,0,0,0,0,0,0,0,0,0,0,0,0,0,0,0,0,0,0,0,0,0,0,0,0,0,0,0,0,0,0,0,0,0,0,0,0,0,0,0,0,0,0,0,0,0,0,0,0,0,0,0,0,0,0,0,0],"id":26,"left_children":[1,3,5,7,9,11,13,15,17,19,21,23,25,27,29,-1,-1,31,33,-1,35,37,-1,-1,-1,39,-1,41,43,45,47,49,51,-1,53,-1,55,-1,-1,57,59,-1,-1,61,63,65,67,-1,-1,-1,-1,-1,-1,-1,-1,-1,-1,-1,-1,-1,-1,-1,-1,-1,-1,-1,-1,-1,-1],"loss_changes":[3.50075E3,1.8346875E2,6.075E2,3.1746875E2,3.565E2,1.2285156E0,6.425E2,1.171875E0,2.2920312E2,3.0421875E1,9.628906E0,4.113867E1,6.695166E1,3.063125E2,1.7309375E2,0E0,0E0,2.2709277E2,2.0484375E1,0E0,2.1414062E1,6.3203125E0,0E0,0E0,0E0,3.320854E1,0E0,2.265E2,5.0021875E2,1.5435938E2,3.493994E1,1.6732227E2,3.0043506E2,0E0,7.265625E0,0E0,8.21875E0,0E0,0E0,3.5694935E1,6.481266E-2,0E0,0E0,1.6500781E2,9.834375E1,1.49375E1,1.3899219E2,0E0,0E0,0E0,0E0,0E0,0E0,0E0,0E0,0E0,0E0,0E0,0E0,0E0,0E0,0E0,0E0,0E0,0E0,0E0,0E0,0E0,0E0],"parents":[2147483647,0,0,1,1,2,2,3,3,4,4,5,5,6,6,7,7,8,8,9,9,10,10,11,11,12,12,13,13,14,14,17,17,18,18,20,20,21,21,25,25,27,27,28,28,29,29,30,30,31,31,32,32,34,34,36,36,39,39,40,40,43,43,44,44,45,45,46,46],"right_children":[2,4,6,8,10,12,14,16,18,20,22,24,26,28,30,-1,-1,32,34,-1,36,38,-1,-1,-1,40,-1,42,44,46,48,50,52,-1,54,-1,56,-1,-1,58,60,-1,-1,62,64,66,68,-1,-1,-1,-1,-1,-1,-1,-1,-1,-1,-1,-1,-1,-1,-1,-1,-1,-1,-1,-1,-1,-1],"split_conditions":[1.38E1,1.34702E1,5.052E3,5.052E3,5.091E3,1.44694E1,1.4389E1,1.3011E1,1.31082E1,1.36682E1,1.37914E1,1.38094E1,1.5068E1,1.38082E1,1.5933E1,3.7062597E-1,3.599961E-1,1.28052E1,1.3271E1,3.631477E-1,5.09E3,1.35514E1,2.6401448E-1,3.3764336E-1,4.391919E-1,1.48428E1,3.2968625E-1,5.09E3,1.39114E1,1.5068E1,5.091E3,5.091E3,1.29106E1,3.3097786E-1,5.09E3,3.4605643E-1,1.37686E1,3.4632453E-1,3.3377784E-1,1.46116E1,1.49484E1,3.719558E-1,3.9885807E-1,5.091E3,1.40656E1,1.45306E1,5.091E3,3.1493276E-1,3.974631E-1,3.2679528E-1,4.9293372E-1,1.5097864E-1,2.96157E-1,3.5227662E-1,3.4095046E-1,3.8031933E-1,3.6592385E-1,-8.286333E-2,2.9289263E-1,-5.389862E-2,-1.4543457E-1,3.593497E-1,3.0903104E-1,3.7725338E-1,3.918298E-1,4.0192088E-1,4.1368723E-1,4.235427E-1,4.813581E-1],"split_indices":[2,2,0,0,0,2,2,2,2,2,2,2,2,2,2,0,0,2,2,0,0,2,0,0,0,2,0,0,2,2,0,0,2,0,0,0,2,0,0,2,2,0,0,0,2,2,0,0,0,0,0,0,0,0,0,0,0,0,0,0,0,0,0,0,0,0,0,0,0],"split_type":[0,0,0,0,0,0,0,0,0,0,0,0,0,0,0,0,0,0,0,0,0,0,0,0,0,0,0,0,0,0,0,0,0,0,0,0,0,0,0,0,0,0,0,0,0,0,0,0,0,0,0,0,0,0,0,0,0,0,0,0,0,0,0,0,0,0,0,0,0],"sum_hessian":[1.07148E5,3.9142E4,6.8006E4,2.0087E4,1.9055E4,2.14E3,6.5866E4,7.171E3,1.2916E4,1.3699E4,5.356E3,1.546E3,5.94E2,5.3609E4,1.2257E4,1.642E3,5.529E3,1.421E3,1.1495E4,7.727E3,5.972E3,5.318E3,3.8E1,1.494E3,5.2E1,1.5E1,5.79E2,2.5872E4,2.7737E4,1.1918E4,3.39E2,3.89E2,1.032E3,2.705E3,8.79E3,4.07E2,5.565E3,1.616E3,3.702E3,1.1E1,4E0,3.946E3,2.1926E4,5.499E3,2.2238E4,9.117E3,2.801E3,2.46E2,9.3E1,3.07E2,8.2E1,1.75E2,8.57E2,1.893E3,6.897E3,4.099E3,1.466E3,3E0,8E0,2E0,2E0,4.676E3,8.23E2,8.862E3,1.3376E4,4.577E3,4.54E3,2.2E3,6.01E2],"tree_param":{"num_deleted":"0","num_feature":"3","num_nodes":"69","size_leaf_vector":"0"}},{"base_weights":[3.388074E0,3.2731373E0,3.853459E0,3.1140218E0,3.3780315E0,3.7629857E0,4.250058E0,3.0807729E0,3.2602873E0,3.185013E0,3.4596374E0,3.4881175E0,3.8351893E0,4.1951656E0,4.792576E0,2.7791092E0,3.0922112E0,2.5188653E0,3.2800012E0,3.1413164E0,3.431508E0,3.4109125E0,3.5958614E0,3.2794538E0,3.5535035E0,3.9568543E0,3.749713E0,3.5989108E0,4.238962E0,4.5980868E-1,5.3840077E-1,1.0477712E0,2.8106415E0,2.835688E0,3.102772E0,1.6817274E0,2.7034733E0,3.2290998E0,3.36583E-1,2.9975562E0,3.1642156E0,2.5816233E0,3.5223482E0,3.368233E0,3.5046942E0,3.712096E0,3.5304923E0,2.5567687E0,3.306522E0,4.3628916E-1,3.534057E0,3.8433294E0,4.137357E0,3.6444247E0,3.8930182E0,5.361404E-1,3.4647388E0,4.4585404E0,4.0877547E0,1.1892579E-1,1.8451024E-2,2.559585E-1,2.9001653E-1,3.1316766E-1,2.7278736E-1,3.0277726E-1,3.1209552E-1,1.8792497E-1,1.1158424E-1,2.7796018E-1,1.4662956E-1,3.3265808E-1,3.199508E-1,6.744187E-2,3.0035812E-1,3.1242332E-1,3.2402986E-1,2.7903518E-1,9.9850304E-2,3.6113295E-1,3.118553E-1,3.2582304E-1,3.4090182E-1,3.5225406E-1,3.0458376E-1,3.5671523E-1,3.7441295E-1,3.446198E-1,3.7050137E-1,1.9700725E-1,3.3380005E-1,3.3214203E-1,2.601603E-1,3.4371242E-1,3.6560336E-1,3.5898748E-1,3.9070222E-1,3.8102955E-1,4.2288706E-1,3.5512576E-1,3.7134117E-1,3.8344118E-1,4.112571E-1,-1.9291516E-1,3.4957686E-1,4.2651397E-1,4.760569E-1,3.907851E-1,4.5542136E-1],"categories":[],"categories_nodes":[],"categories_segments":[],"categories_sizes":[],"default_left":[0,0,0,0,0,0,0,0,0,0,0,0,0,0,0,0,0,0,0,0,0,0,0,0,0,0,0,0,0,0,0,0,0,0,0,0,0,0,0,0,0,0,0,0,0,0,0,0,0,0,0,0,0,0,0,0,0,0,0,0,0,0,0,0,0,0,0,0,0,0,0,0,0,0,0,0,0,0,0,0,0,0,0,0,0,0,0,0,0,0,0,0,0,0,0,0,0,0,0,0,0,0,0,0,0,0,0,0,0],"id":27,"left_children":[1,3,5,7,9,11,13,15,17,19,21,23,25,27,29,31,33,35,37,39,41,43,45,47,49,51,53,55,57,-1,-1,59,61,63,65,67,69,71,-1,73,75,77,79,81,83,85,87,89,91,-1,93,95,97,99,101,-1,103,105,107,-1,-1,-1,-1,-1,-1,-1,-1,-1,-1,-1,-1,-1,-1,-1,-1,-1,-1,-1,-1,-1,-1,-1,-1,-1,-1,-1,-1,-1,-1,-1,-1,-1,-1,-1,-1,-1,-1,-1,-1,-1,-1,-1,-1,-1,-1,-1,-1,-1,-1],"loss_changes":[5.72875E3,1.42625E3,7.4659375E2,1.56375E2,8.06E2,3.3026562E2,9.7234375E1,8.765625E1,8.4109375E1,1.5539062E2,2.2959375E2,3.763672E1,1.27640625E2,7.8390625E1,1.6078125E1,5.3231445E1,6.4E1,2.1416626E1,1.6015625E1,3.36875E1,1.6940234E2,9.575E1,5.9703125E1,8.662109E0,2.7695312E1,9.959375E1,1.0753125E2,4.10166E1,9.250391E1,0E0,0E0,2.2233658E0,1.5277344E1,2.5730469E1,2.5734375E1,1.5916214E0,8.733276E0,5.703125E-1,0E0,2.3461914E1,2.4234375E1,7.222424E1,6.3689453E1,7.1828125E1,5.7875E1,2.5703125E0,7.7765625E1,9.924332E0,1.8066406E-1,0E0,1.9117188E1,4.2054688E1,4.8628906E1,1.6800781E1,2.8003906E1,0E0,4.641089E1,5.849414E1,1.4894531E2,0E0,0E0,0E0,0E0,0E0,0E0,0E0,0E0,0E0,0E0,0E0,0E0,0E0,0E0,0E0,0E0,0E0,0E0,0E0,0E0,0E0,0E0,0E0,0E0,0E0,0E0,0E0,0E0,0E0,0E0,0E0,0E0,0E0,0E0,0E0,0E0,0E0,0E0,0E0,0E0,0E0,0E0,0E0,0E0,0E0,0E0,0E0,0E0,0E0,0E0],"parents":[2147483647,0,0,1,1,2,2,3,3,4,4,5,5,6,6,7,7,8,8,9,9,10,10,11,11,12,12,13,13,14,14,15,15,16,16,17,17,18,18,19,19,20,20,21,21,22,22,23,23,24,24,25,25,26,26,27,27,28,28,31,31,32,32,33,33,34,34,35,35,36,36,37,37,39,39,40,40,41,41,42,42,43,43,44,44,45,45,46,46,47,47,48,48,50,50,51,51,52,52,53,53,54,54,56,56,57,57,58,58],"right_children":[2,4,6,8,10,12,14,16,18,20,22,24,26,28,30,32,34,36,38,40,42,44,46,48,50,52,54,56,58,-1,-1,60,62,64,66,68,70,72,-1,74,76,78,80,82,84,86,88,90,92,-1,94,96,98,100,102,-1,104,106,108,-1,-1,-1,-1,-1,-1,-1,-1,-1,-1,-1,-1,-1,-1,-1,-1,-1,-1,-1,-1,-1,-1,-1,-1,-1,-1,-1,-1,-1,-1,-1,-1,-1,-1,-1,-1,-1,-1,-1,-1,-1,-1,-1,-1,-1,-1,-1,-1,-1,-1],"split_conditions":[2.05E1,1.38E1,2.37E1,1.86E1,1.71E1,1.36714E1,2.83E1,1.59E1,1.29106E1,1.42716E1,1.92E1,2.1E1,1.38082E1,1.37282E1,3.04E1,1.36E1,1.29892E1,1.89E1,1.35514E1,1.6E1,1.59E1,1.42674E1,1.38082E1,1.295E1,1.28052E1,2.21E1,1.42696E1,1.28052E1,1.38082E1,4.5980868E-1,5.3840077E-1,1.22E1,1.33306E1,1.68E1,1.65E1,1.28052E1,2.04E1,1.31502E1,3.36583E-1,1E1,1.3888E1,1.58296E1,1.57304E1,1.76E1,1.58296E1,1.94E1,1.43276E1,2.08E1,1.36682E1,4.3628916E-1,1.34702E1,1.38E1,1.38E1,1.40068E1,1.5068E1,5.361404E-1,1.295E1,2.5E1,1.47272E1,1.1892579E-1,1.8451024E-2,2.559585E-1,2.9001653E-1,3.1316766E-1,2.7278736E-1,3.0277726E-1,3.1209552E-1,1.8792497E-1,1.1158424E-1,2.7796018E-1,1.4662956E-1,3.3265808E-1,3.199508E-1,6.744187E-2,3.0035812E-1,3.1242332E-1,3.2402986E-1,2.7903518E-1,9.9850304E-2,3.6113295E-1,3.118553E-1,3.2582304E-1,3.4090182E-1,3.5225406E-1,3.0458376E-1,3.5671523E-1,3.7441295E-1,3.446198E-1,3.7050137E-1,1.9700725E-1,3.3380005E-1,3.3214203E-1,2.601603E-1,3.4371242E-1,3.6560336E-1,3.5898748E-1,3.9070222E-1,3.8102955E-1,4.2288706E-1,3.5512576E-1,3.7134117E-1,3.8344118E-1,4.112571E-1,-1.9291516E-1,3.4957686E-1,4.2651397E-1,4.760569E-1,3.907851E-1,4.5542136E-1],"split_indices":[1,2,1,1,1,2,1,1,2,2,1,1,2,2,1,1,2,1,2,1,1,2,2,2,2,1,2,2,2,0,0,1,2,1,1,2,1,2,0,1,2,2,2,1,2,1,2,1,2,0,2,2,2,2,2,0,2,1,2,0,0,0,0,0,0,0,0,0,0,0,0,0,0,0,0,0,0,0,0,0,0,0,0,0,0,0,0,0,0,0,0,0,0,0,0,0,0,0,0,0,0,0,0,0,0,0,0,0,0],"split_type":[0,0,0,0,0,0,0,0,0,0,0,0,0,0,0,0,0,0,0,0,0,0,0,0,0,0,0,0,0,0,0,0,0,0,0,0,0,0,0,0,0,0,0,0,0,0,0,0,0,0,0,0,0,0,0,0,0,0,0,0,0,0,0,0,0,0,0,0,0,0,0,0,0,0,0,0,0,0,0,0,0,0,0,0,0,0,0,0,0,0,0,0,0,0,0,0,0,0,0,0,0,0,0,0,0,0,0,0,0],"sum_hessian":[1.07335E5,8.6083E4,2.1252E4,3.4214E4,5.1869E4,1.7313E4,3.939E3,2.7895E4,6.319E3,1.5425E4,3.6444E4,3.612E3,1.3701E4,3.585E3,3.54E2,1.028E3,2.6867E4,1.67E2,6.152E3,1.3114E4,2.311E3,2.6862E4,9.582E3,8.74E2,2.738E3,5.635E3,8.066E3,2.51E2,3.334E3,2.73E2,8.1E1,1.9E1,1.009E3,1.073E3,2.5794E4,3.2E1,1.35E2,3.886E3,2.266E3,1.82E3,1.1294E4,2.26E2,2.085E3,1.8486E4,8.376E3,3.429E3,6.153E3,3.5E1,8.39E2,5.9E1,2.679E3,3.473E3,2.162E3,4.665E3,3.401E3,1.5E1,2.36E2,1.348E3,1.986E3,1.6E1,3E0,2.73E2,7.36E2,2.79E2,7.94E2,5.066E3,2.0728E4,2.2E1,1E1,1.26E2,9E0,8.79E2,3.007E3,5E0,1.815E3,7.431E3,3.863E3,1.99E2,2.7E1,1.702E3,3.83E2,5.022E3,1.3464E4,8.056E3,3.2E2,6.41E2,2.788E3,4.163E3,1.99E3,2.2E1,1.3E1,8.18E2,2.1E1,1.509E3,1.17E3,7.09E2,2.764E3,4.82E2,1.68E3,2.007E3,2.658E3,2.699E3,7.02E2,1E0,2.35E2,8.31E2,5.17E2,1.44E3,5.46E2],"tree_param":{"num_deleted":"0","num_feature":"3","num_nodes":"109","size_leaf_vector":"0"}},{"base_weights":[3.0461137E0,2.934855E0,3.4533794E0,2.7967203E0,3.025919E0,3.3772337E0,3.823396E0,2.7724078E0,2.955511E0,2.8585713E0,3.0992982E0,3.1663017E0,3.4582906E0,3.7632158E0,4.4008064E-1,2.3395681E0,2.7810023E0,2.8834124E0,3.0220228E-1,2.8134809E0,3.0936813E0,3.0252151E0,3.175623E0,3.075023E0,3.3032115E0,3.6209428E0,3.3668904E0,3.3342164E0,3.8085659E0,3.0139005E0,2.1538737E0,2.507023E0,2.79119E0,2.9330676E0,2.7997437E0,2.4019797E0,2.8205376E0,1.9453975E0,3.1682808E0,2.9552066E0,3.1120267E0,3.2814689E0,3.1178193E0,2.9820616E0,3.130618E-1,3.1866926E-1,3.3912292E-1,3.5027137E0,3.840517E0,3.3014295E0,3.5613084E0,4.8407385E-1,3.2325E0,4.056084E0,3.6514506E0,-1.3450623E-3,3.0648935E-1,1.9663295E-1,2.3186855E-1,7.0077494E-2,2.531199E-1,2.793429E-1,2.2991459E-1,3.1722137E-1,2.8810975E-1,2.4285908E-1,2.833757E-1,2.5559065E-1,4.8127916E-2,3.3296362E-1,2.8101143E-1,2.0644374E-1,4.954702E-2,3.2790473E-1,2.9900494E-1,2.8487635E-1,3.012478E-1,3.243504E-1,3.0481264E-1,3.2296303E-1,3.366495E-1,2.908549E-1,3.1613275E-1,3.0808672E-1,2.869714E-1,3.37598E-1,3.5337615E-1,4.1573048E-1,3.7773517E-1,3.218168E-1,3.3719274E-1,3.5864785E-1,2.4885531E-1,3.404506E-1,2.6728657E-1,3.861185E-1,4.3156466E-1,3.5103673E-1,3.960199E-1],"categories":[],"categories_nodes":[],"categories_segments":[],"categories_sizes":[],"default_left":[0,0,0,0,0,0,0,0,0,0,0,0,0,0,0,0,0,0,0,0,0,0,0,0,0,0,0,0,0,0,0,0,0,0,0,0,0,0,0,0,0,0,0,0,0,0,0,0,0,0,0,0,0,0,0,0,0,0,0,0,0,0,0,0,0,0,0,0,0,0,0,0,0,0,0,0,0,0,0,0,0,0,0,0,0,0,0,0,0,0,0,0,0,0,0,0,0,0,0],"id":28,"left_children":[1,3,5,7,9,11,13,15,17,19,21,23,25,27,-1,29,31,33,-1,35,37,39,41,43,45,47,49,51,53,55,57,59,61,63,65,67,69,71,73,75,77,79,81,83,-1,-1,-1,85,87,89,91,-1,93,95,97,-1,-1,-1,-1,-1,-1,-1,-1,-1,-1,-1,-1,-1,-1,-1,-1,-1,-1,-1,-1,-1,-1,-1,-1,-1,-1,-1,-1,-1,-1,-1,-1,-1,-1,-1,-1,-1,-1,-1,-1,-1,-1,-1,-1],"loss_changes":[4.8495625E3,1.05125E3,6.353125E2,1.21078125E2,6.1446875E2,3.1542188E2,1.1962109E2,1.0159375E2,1.2535156E1,1.5545312E2,1.89875E2,5.6214844E1,1.9265625E2,5.6484375E1,0E0,6.513403E1,7.2484375E1,7.109375E-1,0E0,3.0992188E1,2.0644922E2,9.971875E1,9.59375E1,7.2070312E0,1.084375E1,1.1489453E2,1.0069531E2,3.76792E1,1.0998047E2,1.8720337E1,9.411865E0,4.324707E1,2.3828125E1,7.352539E0,3.4951172E0,6.558606E1,5.8460938E1,2.5557373E1,3.617383E1,5.2015625E1,5.7171875E1,1.60625E1,9.3203125E1,4.6904297E0,0E0,0E0,0E0,7.6171875E-1,1.871289E1,2.8023438E1,5.0828125E1,0E0,2.2569824E1,4.5914062E1,7.2041016E1,0E0,0E0,0E0,0E0,0E0,0E0,0E0,0E0,0E0,0E0,0E0,0E0,0E0,0E0,0E0,0E0,0E0,0E0,0E0,0E0,0E0,0E0,0E0,0E0,0E0,0E0,0E0,0E0,0E0,0E0,0E0,0E0,0E0,0E0,0E0,0E0,0E0,0E0,0E0,0E0,0E0,0E0,0E0,0E0],"parents":[2147483647,0,0,1,1,2,2,3,3,4,4,5,5,6,6,7,7,8,8,9,9,10,10,11,11,12,12,13,13,15,15,16,16,17,17,19,19,20,20,21,21,22,22,23,23,24,24,25,25,26,26,27,27,28,28,29,29,30,30,31,31,32,32,33,33,34,34,35,35,36,36,37,37,38,38,39,39,40,40,41,41,42,42,43,43,47,47,48,48,49,49,50,50,52,52,53,53,54,54],"right_children":[2,4,6,8,10,12,14,16,18,20,22,24,26,28,-1,30,32,34,-1,36,38,40,42,44,46,48,50,52,54,56,58,60,62,64,66,68,70,72,74,76,78,80,82,84,-1,-1,-1,86,88,90,92,-1,94,96,98,-1,-1,-1,-1,-1,-1,-1,-1,-1,-1,-1,-1,-1,-1,-1,-1,-1,-1,-1,-1,-1,-1,-1,-1,-1,-1,-1,-1,-1,-1,-1,-1,-1,-1,-1,-1,-1,-1,-1,-1,-1,-1,-1,-1],"split_conditions":[2.03E1,1.38E1,2.37E1,1.89E1,1.71E1,1.37914E1,2.81E1,1.29106E1,1.34518E1,1.42504E1,1.84E1,2.18E1,1.38082E1,1.38E1,4.4008064E-1,1.68E1,1.59E1,1.96E1,3.0220228E-1,1.25E1,1.57E1,1.40098E1,1.38082E1,1.34082E1,1.35272E1,2.21E1,1.44484E1,1.28052E1,1.38082E1,1.36E1,1.77E1,1.22E1,1.37914E1,1.3011E1,1.295E1,1.38082E1,1.5E1,1.58296E1,1.49484E1,1.75E1,1.76E1,1.94E1,1.39884E1,1.32128E1,3.130618E-1,3.1866926E-1,3.3912292E-1,2.06E1,2.23E1,1.40656E1,1.5933E1,4.8407385E-1,2.44E1,2.49E1,1.45918E1,-1.3450623E-3,3.0648935E-1,1.9663295E-1,2.3186855E-1,7.0077494E-2,2.531199E-1,2.793429E-1,2.2991459E-1,3.1722137E-1,2.8810975E-1,2.4285908E-1,2.833757E-1,2.5559065E-1,4.8127916E-2,3.3296362E-1,2.8101143E-1,2.0644374E-1,4.954702E-2,3.2790473E-1,2.9900494E-1,2.8487635E-1,3.012478E-1,3.243504E-1,3.0481264E-1,3.2296303E-1,3.366495E-1,2.908549E-1,3.1613275E-1,3.0808672E-1,2.869714E-1,3.37598E-1,3.5337615E-1,4.1573048E-1,3.7773517E-1,3.218168E-1,3.3719274E-1,3.5864785E-1,2.4885531E-1,3.404506E-1,2.6728657E-1,3.861185E-1,4.3156466E-1,3.5103673E-1,3.960199E-1],"split_indices":[1,2,1,1,1,2,1,2,2,2,1,1,2,2,0,1,1,1,0,1,1,2,2,2,2,1,2,2,2,1,1,1,2,2,2,2,1,2,2,1,1,1,2,2,0,0,0,1,1,2,2,0,1,1,2,0,0,0,0,0,0,0,0,0,0,0,0,0,0,0,0,0,0,0,0,0,0,0,0,0,0,0,0,0,0,0,0,0,0,0,0,0,0,0,0,0,0,0,0],"split_type":[0,0,0,0,0,0,0,0,0,0,0,0,0,0,0,0,0,0,0,0,0,0,0,0,0,0,0,0,0,0,0,0,0,0,0,0,0,0,0,0,0,0,0,0,0,0,0,0,0,0,0,0,0,0,0,0,0,0,0,0,0,0,0,0,0,0,0,0,0,0,0,0,0,0,0,0,0,0,0,0,0,0,0,0,0,0,0,0,0,0,0,0,0,0,0,0,0,0,0],"sum_hessian":[1.0725E5,8.4244E4,2.3006E4,3.3484E4,5.076E4,1.9088E4,3.918E3,2.9054E4,4.43E3,1.5485E4,3.5275E4,5.31E3,1.3778E4,3.555E3,3.63E2,5.71E2,2.8483E4,2.147E3,2.283E3,1.3004E4,2.481E3,1.7921E4,1.7354E4,3.2E3,2.11E3,4.943E3,8.835E3,3.47E2,3.208E3,1.2E2,4.51E2,1.03E3,2.7453E4,1.326E3,8.21E2,2.25E2,1.2779E4,1.53E2,2.328E3,9.94E3,7.981E3,6.11E3,1.1244E4,1.218E3,1.982E3,9.24E2,1.186E3,3.224E3,1.719E3,6.623E3,2.212E3,1.9E1,3.28E2,1.236E3,1.972E3,2E0,1.18E2,2.17E2,2.34E2,1.4E1,1.016E3,2.7324E4,1.29E2,2.26E2,1.1E3,7.5E1,7.46E2,2.08E2,1.7E1,2.5E2,1.2529E4,1.41E2,1.2E1,1.425E3,9.03E2,3.495E3,6.445E3,2.594E3,5.387E3,3.82E3,2.29E3,1.947E3,9.297E3,6.34E2,5.84E2,6.56E2,2.568E3,2.75E2,1.444E3,3.058E3,3.565E3,2.159E3,5.3E1,2.47E2,8.1E1,7.15E2,5.21E2,1.362E3,6.1E2],"tree_param":{"num_deleted":"0","num_feature":"3","num_nodes":"99","size_leaf_vector":"0"}},{"base_weights":[2.74165E0,2.6082203E0,3.023773E0,2.5521076E0,2.7673628E0,2.922755E0,3.277282E0,2.4969628E0,2.6509213E0,1.4022472E0,2.7775786E0,2.747273E0,2.9925926E0,3.220008E0,3.6226528E0,2.345138E0,2.5120068E0,2.5213885E0,2.765041E0,9.981633E-1,1.845713E0,2.788366E0,2.4528584E0,2.6904643E0,2.8519075E0,3.1212656E0,2.920105E0,3.2088912E0,4.4821944E0,3.896749E0,3.2468872E0,2.0735698E0,2.373154E0,2.4031973E0,2.5270727E0,2.1595294E0,2.5324078E0,2.8178663E0,2.5146048E0,-1.1875693E-1,1.1664443E0,2.198511E0,3.5308456E-1,2.7182908E0,2.8501618E0,7.863432E-1,2.5047534E0,2.1621659E0,2.7117486E0,3.5879357E0,2.8385465E0,2.992293E-1,3.2039423E0,2.8623147E0,3.1138391E0,2.997555E0,3.266051E0,2.9287271E0,5.1198997E0,2.552812E0,3.9245257E0,2.9880085E0,3.6517665E0,8.316136E-3,2.0933285E-1,2.0990172E-1,2.4041784E-1,2.6889408E-1,2.3628254E-1,2.5226507E-1,2.6515317E-1,1.5828535E-1,2.331305E-1,2.5373405E-1,2.1247983E-1,2.7909654E-1,2.881113E-1,2.3600267E-1,2.6163685E-1,2.9186288E-1,1.0204536E-1,2.2938228E-1,-1.4265099E-1,-2.1502991E-1,1.2313073E-1,2.5921685E-1,2.766625E-1,2.9563877E-1,2.8052318E-1,1.12799324E-1,2.4343831E-2,4.6373844E-1,2.4603711E-1,2.7058917E-1,1.9415009E-1,2.660799E-1,2.7859035E-1,4.4559938E-1,2.4970777E-1,2.2047988E-1,2.8453195E-1,3.1915838E-1,3.4813067E-1,2.6462013E-1,2.8879866E-1,3.1444955E-1,2.0620175E-1,3.002355E-1,1.0699552E-1,3.403068E-1,3.1905133E-1,3.3908677E-1,1.9888577E-1,7.7713645E-1,4.3290362E-1,8.238579E-2,2.9589427E-1,3.8625136E-1,4.335332E-1,3.1614247E-1,2.7050433E-1,3.4120363E-1,4.0311462E-1],"categories":[],"categories_nodes":[],"categories_segments":[],"categories_sizes":[],"default_left":[0,0,0,0,0,0,0,0,0,0,0,0,0,0,0,0,0,0,0,0,0,0,0,0,0,0,0,0,0,0,0,0,0,0,0,0,0,0,0,0,0,0,0,0,0,0,0,0,0,0,0,0,0,0,0,0,0,0,0,0,0,0,0,0,0,0,0,0,0,0,0,0,0,0,0,0,0,0,0,0,0,0,0,0,0,0,0,0,0,0,0,0,0,0,0,0,0,0,0,0,0,0,0,0,0,0,0,0,0,0,0,0,0,0,0,0,0,0,0,0,0,0,0],"id":29,"left_children":[1,3,5,7,9,11,13,15,17,19,21,23,25,27,29,31,33,35,37,39,41,43,45,47,49,51,53,55,57,59,61,63,65,67,69,71,73,75,77,-1,79,81,83,85,87,89,91,93,95,97,99,-1,101,103,105,107,109,111,113,115,117,119,121,-1,-1,-1,-1,-1,-1,-1,-1,-1,-1,-1,-1,-1,-1,-1,-1,-1,-1,-1,-1,-1,-1,-1,-1,-1,-1,-1,-1,-1,-1,-1,-1,-1,-1,-1,-1,-1,-1,-1,-1,-1,-1,-1,-1,-1,-1,-1,-1,-1,-1,-1,-1,-1,-1,-1,-1,-1,-1,-1,-1],"loss_changes":[4.0313125E3,6.4353125E2,8.725625E2,2.8696875E2,2.6079688E2,2.9375E2,1.8232812E2,7.3109375E1,2.7804688E2,2.3782898E1,5.915625E1,3.4101562E1,1.551875E2,1.0377344E2,1.3020312E2,1.8923828E1,4.5515625E1,3.0582031E1,1.2838281E2,2.970716E1,3.4505676E1,7.1171875E1,5.113159E1,4.5546875E1,1.3966797E1,5.7941406E1,1.1740625E2,9.109375E1,5.5341675E1,1.9734375E1,5.103369E1,1.1663574E1,1.9055664E1,3.802539E1,8.5E0,2.3451904E1,1.22421875E1,6.328125E0,2.2030273E1,0E0,1.5439453E1,2.1929565E1,3.342708E1,4.501953E1,3.7835938E1,3.435073E0,4.4907715E1,1.658313E1,9.175781E0,2.6750122E1,4.1015625E0,0E0,2.0664062E0,4.0648438E1,7.674219E1,1.3349609E1,5.7054688E1,3.2461548E0,6.910791E1,1.0903687E1,3.0996094E0,9.408203E0,6.800049E0,0E0,0E0,0E0,0E0,0E0,0E0,0E0,0E0,0E0,0E0,0E0,0E0,0E0,0E0,0E0,0E0,0E0,0E0,0E0,0E0,0E0,0E0,0E0,0E0,0E0,0E0,0E0,0E0,0E0,0E0,0E0,0E0,0E0,0E0,0E0,0E0,0E0,0E0,0E0,0E0,0E0,0E0,0E0,0E0,0E0,0E0,0E0,0E0,0E0,0E0,0E0,0E0,0E0,0E0,0E0,0E0,0E0,0E0,0E0,0E0],"parents":[2147483647,0,0,1,1,2,2,3,3,4,4,5,5,6,6,7,7,8,8,9,9,10,10,11,11,12,12,13,13,14,14,15,15,16,16,17,17,18,18,19,19,20,20,21,21,22,22,23,23,24,24,25,25,26,26,27,27,28,28,29,29,30,30,31,31,32,32,33,33,34,34,35,35,36,36,37,37,38,38,40,40,41,41,42,42,43,43,44,44,45,45,46,46,47,47,48,48,49,49,50,50,52,52,53,53,54,54,55,55,56,56,57,57,58,58,59,59,60,60,61,61,62,62],"right_children":[2,4,6,8,10,12,14,16,18,20,22,24,26,28,30,32,34,36,38,40,42,44,46,48,50,52,54,56,58,60,62,64,66,68,70,72,74,76,78,-1,80,82,84,86,88,90,92,94,96,98,100,-1,102,104,106,108,110,112,114,116,118,120,122,-1,-1,-1,-1,-1,-1,-1,-1,-1,-1,-1,-1,-1,-1,-1,-1,-1,-1,-1,-1,-1,-1,-1,-1,-1,-1,-1,-1,-1,-1,-1,-1,-1,-1,-1,-1,-1,-1,-1,-1,-1,-1,-1,-1,-1,-1,-1,-1,-1,-1,-1,-1,-1,-1,-1,-1,-1,-1,-1,-1],"split_conditions":[1.92E1,1.39718E1,2.22E1,1.76E1,1.54E1,1.37914E1,2.51E1,1.32062E1,1.37126E1,1.5068E1,1.58296E1,2.09E1,1.38082E1,1.57304E1,1.38094E1,1.61E1,1.61E1,1.29106E1,1.38082E1,1.16E1,1.57304E1,1.42716E1,1.59E1,1.295E1,1.28052E1,2.01E1,1.44484E1,1.38E1,2.29E1,1.37914E1,1.49484E1,1.36E1,1.29106E1,1.5E1,1.39286E1,1.79E1,1.37094E1,1.86E1,1.3869E1,-1.1875693E-1,1.18E1,1.53E1,1.21E1,1.69E1,1.74E1,1.58E1,1.6E1,1.96E1,1.35514E1,2.15E1,1.29106E1,2.992293E-1,2.21E1,1.38706E1,1.5933E1,2.5E1,1.38082E1,2.27E1,2.32E1,2.52E1,3.03E1,2.56E1,1.56074E1,8.316136E-3,2.0933285E-1,2.0990172E-1,2.4041784E-1,2.6889408E-1,2.3628254E-1,2.5226507E-1,2.6515317E-1,1.5828535E-1,2.331305E-1,2.5373405E-1,2.1247983E-1,2.7909654E-1,2.881113E-1,2.3600267E-1,2.6163685E-1,2.9186288E-1,1.0204536E-1,2.2938228E-1,-1.4265099E-1,-2.1502991E-1,1.2313073E-1,2.5921685E-1,2.766625E-1,2.9563877E-1,2.8052318E-1,1.12799324E-1,2.4343831E-2,4.6373844E-1,2.4603711E-1,2.7058917E-1,1.9415009E-1,2.660799E-1,2.7859035E-1,4.4559938E-1,2.4970777E-1,2.2047988E-1,2.8453195E-1,3.1915838E-1,3.4813067E-1,2.6462013E-1,2.8879866E-1,3.1444955E-1,2.0620175E-1,3.002355E-1,1.0699552E-1,3.403068E-1,3.1905133E-1,3.3908677E-1,1.9888577E-1,7.7713645E-1,4.3290362E-1,8.238579E-2,2.9589427E-1,3.8625136E-1,4.335332E-1,3.1614247E-1,2.7050433E-1,3.4120363E-1,4.0311462E-1],"split_indices":[1,2,1,1,1,2,1,2,2,2,2,1,2,2,2,1,1,2,2,1,2,2,1,2,2,1,2,2,1,2,2,1,2,1,2,1,2,1,2,0,1,1,1,1,1,1,1,1,2,1,2,0,1,2,2,1,2,1,1,1,1,1,2,0,0,0,0,0,0,0,0,0,0,0,0,0,0,0,0,0,0,0,0,0,0,0,0,0,0,0,0,0,0,0,0,0,0,0,0,0,0,0,0,0,0,0,0,0,0,0,0,0,0,0,0,0,0,0,0,0,0,0,0],"split_type":[0,0,0,0,0,0,0,0,0,0,0,0,0,0,0,0,0,0,0,0,0,0,0,0,0,0,0,0,0,0,0,0,0,0,0,0,0,0,0,0,0,0,0,0,0,0,0,0,0,0,0,0,0,0,0,0,0,0,0,0,0,0,0,0,0,0,0,0,0,0,0,0,0,0,0,0,0,0,0,0,0,0,0,0,0,0,0,0,0,0,0,0,0,0,0,0,0,0,0,0,0,0,0,0,0,0,0,0,0,0,0,0,0,0,0,0,0,0,0,0,0,0,0],"sum_hessian":[1.073E5,7.2854E4,3.4446E4,5.3875E4,1.8979E4,2.464E4,9.806E3,3.4595E4,1.928E4,1.42E2,1.8837E4,7.026E3,1.7614E4,8.42E3,1.386E3,3.133E3,3.1462E4,9.041E3,1.0239E4,7.6E1,6.6E1,1.8224E4,6.13E2,4.571E3,2.455E3,6.332E3,1.1282E4,8.35E3,7E1,7.96E2,5.9E2,3E2,2.833E3,3.846E3,2.7616E4,2.73E2,8.768E3,8.447E3,1.792E3,5E0,7.1E1,5.3E1,1.3E1,8.561E3,9.663E3,1.9E1,5.94E2,1.81E2,4.39E3,3.9E1,2.416E3,2.488E3,3.844E3,8.702E3,2.58E3,1.789E3,6.561E3,2.2E1,4.8E1,1.8E1,7.78E2,3.65E2,2.25E2,3E0,2.97E2,2.95E2,2.538E3,4.68E2,3.378E3,2.6689E4,9.27E2,6.5E1,2.08E2,8.658E3,1.1E2,5.958E3,2.489E3,7.21E2,1.071E3,4E0,6.7E1,5.2E1,1E0,3E0,1E1,2.387E3,6.174E3,2.853E3,6.81E3,1.1E1,8E0,1E1,5.84E2,4.9E1,1.32E2,2.624E3,1.766E3,2E1,1.9E1,2.9E1,2.387E3,3.692E3,1.52E2,9.35E2,7.767E3,2.505E3,7.5E1,1.784E3,5E0,2.316E3,4.245E3,1.3E1,9E0,9E0,3.9E1,4E0,1.4E1,6.85E2,9.3E1,2.2E2,1.45E2,1.44E2,8.1E1],"tree_param":{"num_deleted":"0","num_feature":"3","num_nodes":"123","size_leaf_vector":"0"}},{"base_weights":[2.467576E0,2.3534641E0,2.734003E0,2.2524667E0,2.410515E0,2.648939E0,2.9770343E0,2.2796395E0,2.1254947E0,2.367185E0,2.4550128E0,2.5893586E0,2.7153811E0,2.9434326E0,3.4320178E0,1.9176147E0,2.2985878E0,2.6461205E0,2.1009693E0,2.3449194E0,2.3847635E0,2.4279647E0,2.5072196E0,2.5082093E-1,2.6063488E0,2.5895274E-1,2.7384984E0,3.0357575E0,2.8103952E0,3.3845952E-1,4.1950774E-1,-5.362579E-1,1.9380308E0,2.1905205E0,2.3369827E0,1.3655463E0,3.002614E0,1.821461E0,2.1404154E0,2.3617823E0,2.2898045E-1,2.3647223E0,2.42588E0,2.415347E0,2.5343425E0,2.4852777E0,2.563881E-1,2.6528728E0,2.5390317E0,2.794591E0,2.6679003E-1,2.7099986E0,3.103191E0,2.732168E-1,2.9638493E0,2.6801777E-1,-1.19143724E-1,2.768317E-1,1.901094E-1,1.9508877E-1,2.2363186E-1,2.3234163E-1,2.3644519E-1,4.243393E-1,7.707094E-2,2.5427768E-1,3.43705E-1,5.7057696E-3,1.8275306E-1,1.9968916E-1,2.1492152E-1,2.3102172E-1,2.3827712E-1,2.4202941E-1,2.3006408E-1,2.360527E-1,2.480912E-1,2.449892E-1,2.3874438E-1,2.7655503E-1,2.5068614E-1,2.574115E-1,2.4709621E-1,2.6695618E-1,2.5424114E-1,2.499053E-1,2.5778207E-1,2.747045E-1,2.887478E-1,2.4388519E-1,2.7474412E-1,3.0910382E-1,4.3155733E-1,2.9827908E-1,2.4029593E-1],"categories":[],"categories_nodes":[],"categories_segments":[],"categories_sizes":[],"default_left":[0,0,0,0,0,0,0,0,0,0,0,0,0,0,0,0,0,0,0,0,0,0,0,0,0,0,0,0,0,0,0,0,0,0,0,0,0,0,0,0,0,0,0,0,0,0,0,0,0,0,0,0,0,0,0,0,0,0,0,0,0,0,0,0,0,0,0,0,0,0,0,0,0,0,0,0,0,0,0,0,0,0,0,0,0,0,0,0,0,0,0,0,0,0,0],"id":30,"left_children":[1,3,5,7,9,11,13,15,17,19,21,23,25,27,29,31,33,35,37,39,41,43,45,-1,47,-1,49,51,53,-1,-1,55,57,59,61,63,65,67,69,71,-1,73,75,77,79,81,-1,83,85,87,-1,89,91,-1,93,-1,-1,-1,-1,-1,-1,-1,-1,-1,-1,-1,-1,-1,-1,-1,-1,-1,-1,-1,-1,-1,-1,-1,-1,-1,-1,-1,-1,-1,-1,-1,-1,-1,-1,-1,-1,-1,-1,-1,-1],"loss_changes":[3.255625E3,4.2746875E2,6.571406E2,8.8765625E1,8.671875E1,8.7328125E1,1.1727344E2,1.4882031E2,5.5703125E1,3.9375E0,2.73125E1,1.08125E1,2.5640625E1,8.6859375E1,6.3188477E0,5.699951E1,8.29375E1,9.2681274E1,4.667578E1,4.625E0,5.4296875E0,1.48359375E1,3.6210938E0,0E0,2.5789062E1,0E0,3.0109375E1,9.202344E1,3.025586E1,0E0,0E0,2.4266682E1,2.8717285E1,5.6867188E1,3.359375E-1,7.889838E1,2.422229E1,6.0427246E0,7.7734375E-1,3.4140625E0,0E0,2.7E1,9.96875E0,7.6171875E0,3.4560547E0,1.0546875E0,0E0,4.4921875E0,1.7578125E-1,1.53203125E1,0E0,1.3398438E0,4.2367188E1,0E0,4.1679688E0,0E0,0E0,0E0,0E0,0E0,0E0,0E0,0E0,0E0,0E0,0E0,0E0,0E0,0E0,0E0,0E0,0E0,0E0,0E0,0E0,0E0,0E0,0E0,0E0,0E0,0E0,0E0,0E0,0E0,0E0,0E0,0E0,0E0,0E0,0E0,0E0,0E0,0E0,0E0,0E0],"parents":[2147483647,0,0,1,1,2,2,3,3,4,4,5,5,6,6,7,7,8,8,9,9,10,10,11,11,12,12,13,13,14,14,15,15,16,16,17,17,18,18,19,19,20,20,21,21,22,22,24,24,26,26,27,27,28,28,31,31,32,32,33,33,34,34,35,35,36,36,37,37,38,38,39,39,41,41,42,42,43,43,44,44,45,45,47,47,48,48,49,49,51,51,52,52,54,54],"right_children":[2,4,6,8,10,12,14,16,18,20,22,24,26,28,30,32,34,36,38,40,42,44,46,-1,48,-1,50,52,54,-1,-1,56,58,60,62,64,66,68,70,72,-1,74,76,78,80,82,-1,84,86,88,-1,90,92,-1,94,-1,-1,-1,-1,-1,-1,-1,-1,-1,-1,-1,-1,-1,-1,-1,-1,-1,-1,-1,-1,-1,-1,-1,-1,-1,-1,-1,-1,-1,-1,-1,-1,-1,-1,-1,-1,-1,-1,-1,-1],"split_conditions":[1.94E1,1.7E1,2.25E1,5.091E3,1.8E1,2.07E1,2.64E1,1.57E1,1.52E1,1.74E1,5.091E3,5.09E3,5.09E3,5.091E3,3.08E1,1.03E1,5.09E3,1.2E1,1.61E1,5.091E3,5.091E3,1.92E1,1.89E1,2.5082093E-1,5.091E3,2.5895274E-1,5.091E3,5.09E3,2.41E1,3.3845952E-1,4.1950774E-1,9.7E0,1.16E1,1.62E1,1.67E1,1.1E1,1.29E1,1.53E1,1.62E1,5.09E3,2.2898045E-1,1.77E1,1.77E1,5.09E3,5.052E3,1.81E1,2.563881E-1,2.05E1,2E1,2.18E1,2.6679003E-1,5.052E3,2.61E1,2.732168E-1,2.61E1,2.6801777E-1,-1.19143724E-1,2.768317E-1,1.901094E-1,1.9508877E-1,2.2363186E-1,2.3234163E-1,2.3644519E-1,4.243393E-1,7.707094E-2,2.5427768E-1,3.43705E-1,5.7057696E-3,1.8275306E-1,1.9968916E-1,2.1492152E-1,2.3102172E-1,2.3827712E-1,2.4202941E-1,2.3006408E-1,2.360527E-1,2.480912E-1,2.449892E-1,2.3874438E-1,2.7655503E-1,2.5068614E-1,2.574115E-1,2.4709621E-1,2.6695618E-1,2.5424114E-1,2.499053E-1,2.5778207E-1,2.747045E-1,2.887478E-1,2.4388519E-1,2.7474412E-1,3.0910382E-1,4.3155733E-1,2.9827908E-1,2.4029593E-1],"split_indices":[1,1,1,0,1,1,1,1,1,1,0,0,0,0,1,1,0,1,1,0,0,1,1,0,0,0,0,0,1,0,0,1,1,1,1,1,1,1,1,0,0,1,1,0,0,1,0,1,1,1,0,0,1,0,1,0,0,0,0,0,0,0,0,0,0,0,0,0,0,0,0,0,0,0,0,0,0,0,0,0,0,0,0,0,0,0,0,0,0,0,0,0,0,0,0],"split_type":[0,0,0,0,0,0,0,0,0,0,0,0,0,0,0,0,0,0,0,0,0,0,0,0,0,0,0,0,0,0,0,0,0,0,0,0,0,0,0,0,0,0,0,0,0,0,0,0,0,0,0,0,0,0,0,0,0,0,0,0,0,0,0,0,0,0,0,0,0,0,0,0,0,0,0,0,0,0,0,0,0,0,0,0,0,0,0,0,0,0,0,0,0,0,0],"sum_hessian":[1.07293E5,7.5126E4,3.2167E4,2.7133E4,4.7993E4,2.3836E4,8.331E3,2.2336E4,4.797E3,2.4343E4,2.365E4,1.2588E4,1.1248E4,7.765E3,5.66E2,1.116E3,2.122E4,2.11E2,4.586E3,1.0799E4,1.3544E4,1.561E4,8.04E3,2.205E3,1.0383E4,1.763E3,9.485E3,4.571E3,3.194E3,5.38E2,2.8E1,9E0,1.107E3,5.578E3,1.5642E4,4.7E1,1.64E2,5.73E2,4.013E3,8.237E3,2.562E3,9.145E3,4.399E3,1.3976E4,1.634E3,5.828E3,2.212E3,6.117E3,4.266E3,5.264E3,4.221E3,7.91E2,3.78E3,2.128E3,1.066E3,1E0,8E0,4.4E1,1.063E3,9.02E2,4.676E3,1.0528E4,5.114E3,7E0,4E1,8.3E1,8.1E1,2E0,5.71E2,2.45E2,3.768E3,2.415E3,5.822E3,4.878E3,4.267E3,2.031E3,2.368E3,6.206E3,7.77E3,1.63E2,1.471E3,7.84E2,5.044E3,5.294E3,8.23E2,2.133E3,2.133E3,3.502E3,1.762E3,1.04E2,6.87E2,3.746E3,3.4E1,1.027E3,3.9E1],"tree_param":{"num_deleted":"0","num_feature":"3","num_nodes":"95","size_leaf_vector":"0"}},{"base_weights":[2.2211187E0,2.049123E0,2.29508E0,2.1880794E0,2.0057294E0,1.8873947E0,2.3076088E0,2.2703569E-1,2.1655269E0,1.4212607E0,2.0250351E0,1.9390916E0,1.7407019E0,2.2744935E0,2.444745E0,2.1377425E0,2.2551627E-1,2.1076436E0,7.927882E-1,1.9341552E0,2.0743933E0,1.90387E0,2.944173E-1,-4.2615017E-1,1.7899191E0,2.3219972E0,2.2147171E0,2.4627285E0,2.0479236E0,2.0018792E-1,2.1468942E-1,1.772064E0,3.3510694E-1,1.9328576E-1,2.5228465E-1,1.8717872E0,1.9739349E0,2.1332467E0,1.9520644E0,2.3022078E-1,1.887621E-1,4.3491593E-1,-2.0630525E-1,1.6600184E-1,1.9910154E0,2.1856549E0,2.3582885E0,2.0175376E0,2.2659996E0,2.4232485E0,2.627265E0,1.4480045E0,2.2234802E0,3.4010515E-1,1.4312993E-1,-1.7169556E-2,1.5891002E-1,1.7717844E-1,1.893578E-1,2.0615828E-1,1.9465823E-1,2.0462552E-1,2.1613947E-1,2.0111445E-1,1.8749872E-1,-9.881471E-2,2.0556083E-1,1.8816164E-1,2.181808E-1,2.2821508E-1,1.8580203E-1,2.1559647E-1,2.3937881E-1,2.0851429E-1,1.6413268E-1,2.2234495E-1,2.300669E-1,2.3882572E-1,2.4882002E-1,2.83781E-1,2.5243887E-1,1.7118242E-1,1.2478473E-1,2.1140607E-1,2.3986009E-1],"categories":[],"categories_nodes":[],"categories_segments":[],"categories_sizes":[],"default_left":[0,0,0,0,0,0,0,0,0,0,0,0,0,0,0,0,0,0,0,0,0,0,0,0,0,0,0,0,0,0,0,0,0,0,0,0,0,0,0,0,0,0,0,0,0,0,0,0,0,0,0,0,0,0,0,0,0,0,0,0,0,0,0,0,0,0,0,0,0,0,0,0,0,0,0,0,0,0,0,0,0,0,0,0,0],"id":31,"left_children":[1,3,5,7,9,11,13,-1,15,17,19,21,23,25,27,29,-1,31,33,35,37,39,-1,41,43,45,47,49,51,-1,-1,53,-1,-1,55,57,59,61,63,-1,-1,65,-1,-1,67,69,71,73,75,77,79,81,83,-1,-1,-1,-1,-1,-1,-1,-1,-1,-1,-1,-1,-1,-1,-1,-1,-1,-1,-1,-1,-1,-1,-1,-1,-1,-1,-1,-1,-1,-1,-1,-1],"loss_changes":[1.3599375E3,1.901875E2,3.788125E2,9.3125E0,2.7473438E2,1.3627441E1,3.2490625E2,0E0,1.0222656E1,3.3911353E2,1.02796875E2,5.2770508E1,6.411084E1,1.6134375E2,9.586719E1,1.4570312E0,0E0,1.5137183E2,2.5462396E2,1.7136719E1,1.0683594E2,5.984375E0,0E0,2.0629988E1,1.1871948E1,1.5639062E2,2.5816406E2,8.1484375E1,6.1973633E1,0E0,0E0,1.6110742E2,0E0,0E0,1.6010573E2,3.8125E0,8.232422E0,2.1039062E1,1.9089844E1,0E0,0E0,2.5094719E1,0E0,0E0,5.492554E-1,2.131836E2,1.7995312E2,1.3320898E2,2.528125E1,1.8875E1,4.9259766E1,5.415039E0,4.069092E0,0E0,0E0,0E0,0E0,0E0,0E0,0E0,0E0,0E0,0E0,0E0,0E0,0E0,0E0,0E0,0E0,0E0,0E0,0E0,0E0,0E0,0E0,0E0,0E0,0E0,0E0,0E0,0E0,0E0,0E0,0E0,0E0],"parents":[2147483647,0,0,1,1,2,2,3,3,4,4,5,5,6,6,8,8,9,9,10,10,11,11,12,12,13,13,14,14,15,15,17,17,18,18,19,19,20,20,21,21,23,23,24,24,25,25,26,26,27,27,28,28,31,31,34,34,35,35,36,36,37,37,38,38,41,41,44,44,45,45,46,46,47,47,48,48,49,49,50,50,51,51,52,52],"right_children":[2,4,6,8,10,12,14,-1,16,18,20,22,24,26,28,30,-1,32,34,36,38,40,-1,42,44,46,48,50,52,-1,-1,54,-1,-1,56,58,60,62,64,-1,-1,66,-1,-1,68,70,72,74,76,78,80,82,84,-1,-1,-1,-1,-1,-1,-1,-1,-1,-1,-1,-1,-1,-1,-1,-1,-1,-1,-1,-1,-1,-1,-1,-1,-1,-1,-1,-1,-1,-1,-1,-1],"split_conditions":[1.36714E1,5.052E3,5.052E3,1.3011E1,1.30078E1,1.45052E1,1.43326E1,2.2703569E-1,1.33472E1,1.28052E1,1.34082E1,1.3811E1,1.5068E1,1.38082E1,1.58296E1,1.3048E1,2.2551627E-1,5.091E3,5.09E3,1.3271E1,5.091E3,1.38E1,2.944173E-1,1.48428E1,1.58296E1,1.38E1,1.39114E1,1.5068E1,5.09E3,2.0018792E-1,2.1468942E-1,5.09E3,3.3510694E-1,1.9328576E-1,5.091E3,1.31082E1,5.09E3,1.34702E1,1.35514E1,2.3022078E-1,1.887621E-1,1.47706E1,-2.0630525E-1,1.6600184E-1,1.5933E1,5.091E3,5.09E3,5.091E3,1.40692E1,1.45716E1,1.52668E1,1.5933E1,5.091E3,3.4010515E-1,1.4312993E-1,-1.7169556E-2,1.5891002E-1,1.7717844E-1,1.893578E-1,2.0615828E-1,1.9465823E-1,2.0462552E-1,2.1613947E-1,2.0111445E-1,1.8749872E-1,-9.881471E-2,2.0556083E-1,1.8816164E-1,2.181808E-1,2.2821508E-1,1.8580203E-1,2.1559647E-1,2.3937881E-1,2.0851429E-1,1.6413268E-1,2.2234495E-1,2.300669E-1,2.3882572E-1,2.4882002E-1,2.83781E-1,2.5243887E-1,1.7118242E-1,1.2478473E-1,2.1140607E-1,2.3986009E-1],"split_indices":[2,0,0,2,2,2,2,0,2,2,2,2,2,2,2,2,0,0,0,2,0,2,0,2,2,2,2,2,0,0,0,0,0,0,0,2,0,2,2,0,0,2,0,0,2,0,0,0,2,2,2,2,0,0,0,0,0,0,0,0,0,0,0,0,0,0,0,0,0,0,0,0,0,0,0,0,0,0,0,0,0,0,0,0,0],"split_type":[0,0,0,0,0,0,0,0,0,0,0,0,0,0,0,0,0,0,0,0,0,0,0,0,0,0,0,0,0,0,0,0,0,0,0,0,0,0,0,0,0,0,0,0,0,0,0,0,0,0,0,0,0,0,0,0,0,0,0,0,0,0,0,0,0,0,0,0,0,0,0,0,0,0,0,0,0,0,0,0,0,0,0,0,0],"sum_hessian":[1.07278E5,3.2268E4,7.501E4,7.667E3,2.4601E4,2.241E3,7.2769E4,1.628E3,6.039E3,7.89E2,2.3812E4,1.648E3,5.93E2,5.8629E4,1.414E4,4.629E3,1.41E3,3.76E2,4.13E2,8.395E3,1.5417E4,1.595E3,5.3E1,1.3E1,5.8E2,3.2647E4,2.5982E4,1.3522E4,6.18E2,3.06E2,4.323E3,2.98E2,7.8E1,1.32E2,2.81E2,3.288E3,5.107E3,1.0398E4,5.019E3,5.7E1,1.538E3,9E0,4E0,3.58E2,2.22E2,6.876E3,2.5771E4,5.371E3,2.0611E4,1.0918E4,2.604E3,1.42E2,4.76E2,5E1,2.48E2,2.14E2,6.7E1,6.03E2,2.685E3,1.197E3,3.91E3,2.56E3,7.838E3,2.827E3,2.192E3,5E0,4E0,1.48E2,7.4E1,5.307E3,1.569E3,3.856E3,2.1915E4,4.549E3,8.22E2,9.283E3,1.1328E4,7.12E3,3.798E3,8.46E2,1.758E3,5.8E1,8.4E1,3.01E2,1.75E2],"tree_param":{"num_deleted":"0","num_feature":"3","num_nodes":"85","size_leaf_vector":"0"}},{"base_weights":[1.9959989E0,1.9074767E0,2.2764523E0,1.8582898E0,2.014641E0,2.2261972E0,2.5529149E0,1.7061961E0,1.8782302E0,1.9867396E0,2.0582187E-1,2.182497E0,2.329808E0,2.5175529E0,2.9022455E0,1.3212821E0,1.7319818E0,1.8476838E0,1.9000447E0,1.9636573E0,2.0311801E-1,2.1246042E0,2.2128024E0,2.3945217E0,2.2274587E0,2.6247928E0,2.37414E0,2.789131E-1,3.251842E-1,1.1138359E0,1.7661346E0,2.319866E0,1.7125877E0,1.8707602E0,1.740667E0,1.9539832E-1,1.8929735E0,2.0052433E-1,1.9296458E0,2.1596053E0,2.0560412E-1,2.1081662E-1,2.232559E0,2.154083E0,2.450849E0,2.2556265E-1,2.0348008E-1,2.2521343E0,